<Nnet> 
<AffineTransform> 256 440 
<LearnRateCoef> 1 <BiasLearnRateCoef> 1 <MaxNorm> 0  [
  0.2489534 -0.02193694 -0.2408974 -0.02239245 -0.02517111 -0.1000615 -0.09537087 -0.06467099 -0.0245307 -0.03130522 0.1201873 -0.04320015 0.107581 0.2720948 0.0588844 -0.09728859 -0.03776219 0.1656288 0.07080067 0.02352586 0.07856103 0.0189886 0.1405066 0.1025854 0.08261823 0.05324639 0.2021473 0.01933905 0.1506064 0.003290406 0.02134403 -0.006172314 -0.01509386 0.09643748 -0.06221052 -0.2015934 -0.03570433 -0.09788732 0.06925582 -0.04875058 0.07940596 -0.07288019 -0.1834648 0.07625152 -0.008026095 -0.2346806 -0.04433818 0.1810273 -0.07442104 0.2372428 -0.01404979 0.1294534 -0.01342088 -0.1030053 -0.0617172 -0.121268 -0.2952879 -0.09453451 -0.01452484 -0.1421995 -0.05832122 0.02537271 0.2051359 -0.06706276 0.01661451 0.1738574 0.184649 0.360061 0.09060014 0.1127699 0.02169163 0.221481 0.09600282 0.06133647 0.188968 0.1343636 -0.05827378 -0.1391062 -0.09287296 0.1500925 0.05063315 -0.06140254 -0.05315738 0.07251327 0.04277771 -0.03201292 0.06659223 -0.08021505 0.1586935 -0.2025393 -0.2764577 -0.08545605 0.1292906 0.1147375 -0.07638115 -0.02872483 -0.4662209 -0.07836929 -0.03337971 0.06598416 -0.04670084 0.1466197 0.1108486 0.1706789 0.04126575 0.1450479 0.009594955 0.1301514 -0.05332132 0.3136828 -0.008547307 0.09656738 0.005087941 -0.07405319 -0.008110382 0.09952983 0.001267367 0.03271042 -0.06736203 0.05726627 -0.09739982 0.01804459 -0.1181447 0.01142239 0.2598105 0.1858837 0.1289394 0.08921686 -0.04813271 0.01505736 0.03851881 -0.01934166 0.2218834 0.09158935 -0.117842 -0.2297561 -0.05266895 -0.05677946 -0.04330154 -0.02122447 0.08113775 0.1269045 0.02593939 0.141107 -0.03763733 0.04760728 0.09231151 0.08127046 -0.02843982 -0.2167696 0.04632954 -0.1577031 0.1737753 -0.01575219 0.07612921 -0.1021678 0.08511104 0.09003035 -0.2495522 -0.05615789 0.09313566 0.04066279 -0.02139322 0.009395715 0.2578492 0.02668921 0.2145207 0.02995767 -0.03972556 -0.07072125 -0.07027776 0.01294912 0.02202401 0.006225934 0.02401248 -0.02859893 0.03048852 -0.06922924 0.02485114 -0.01648852 -0.06162586 0.06791373 -0.07650054 0.1241375 0.07547679 0.02217038 -0.1415486 -0.07333892 -0.02398724 -0.05976475 0.01788053 -0.08647393 -0.06534784 -0.01162107 -0.1542834 0.2425855 -0.06319143 -0.02271646 0.1223241 -0.08721892 0.1375759 -0.1274342 -0.02568628 0.08579805 0.1911018 -0.01142435 0.03090377 -0.1349216 0.07278489 -0.008433488 0.06053311 -0.01550613 0.157406 -0.04337421 0.2449357 0.009786574 0.01074579 -0.02208317 0.02070967 0.07755105 0.1136452 0.04989645 -0.1257652 0.008509854 -0.1374284 -0.1064049 -0.0275471 -0.008367173 -0.06343581 -0.07930187 0.0908363 0.02415909 0.005169668 -0.1139023 -0.02332454 0.108356 0.08096389 0.1107695 -0.03085928 -0.07800594 -0.1075025 0.04678388 -0.116922 0.05510885 0.1113318 -0.03830709 -0.05243163 0.003031767 0.1099325 0.1054021 0.01290124 -0.03909326 0.09087582 -0.06592914 0.1062652 0.06793968 -0.07841308 -0.04278384 -0.1995128 -0.1523972 0.06615407 0.09164454 0.04869933 -0.07631293 0.1517535 -0.01891617 -0.05613276 -0.002549342 -0.01166293 -0.1880332 0.03985545 0.03043056 -0.01691105 0.03321909 -0.1268735 -0.09065376 -0.09122222 0.08336806 -0.1414133 -0.09697609 0.09919535 -0.08791784 -0.08097412 -0.09842841 -0.09862838 0.09671465 -0.08326568 -0.02752554 0.1093559 -0.1730919 0.02216047 0.1895031 0.06365148 0.1034956 -0.05915676 0.2166004 -0.06504416 -0.02306226 -0.0137596 -0.1467014 -0.2007589 0.06189501 0.0002401998 -0.1208482 -0.08454399 -0.08821388 0.1121198 0.03983435 -0.01912063 0.0575487 0.04344384 0.02747546 -0.06585062 -0.05450834 0.06586039 -0.1806152 -0.03130571 0.02753063 -0.009999307 -0.06921622 0.167795 0.06116654 -0.008038024 -0.02622766 0.05826507 0.01206996 -0.06849937 -0.01822001 0.13358 -0.09663324 -0.1753433 0.01197658 -0.1334 0.02231308 0.2565697 0.02019384 0.02118036 0.142918 -0.05974432 -0.06339745 -0.3792059 0.02499674 0.1060632 -0.02496518 0.06273591 -0.07502194 -0.1118329 -0.07565261 -0.04596902 0.1963509 -0.02374889 -0.05378239 -0.03419312 0.1315158 0.1074452 -0.1738928 -0.006279313 -0.06329384 -0.06122715 0.00923786 -0.04058247 0.1185813 -0.03172534 -0.01575422 0.02076589 -0.06043644 -0.02424332 0.05269615 0.06492807 -0.1060992 0.1067611 -0.1228406 -0.0953271 -0.1659879 0.3374064 0.0103975 -0.07453916 -0.07439666 -0.2785686 0.06885207 0.0785149 -0.06080135 -0.1517468 0.04806148 -0.05461695 -0.1228472 -0.1823085 0.04160117 0.07247652 0.0656656 0.1168459 -0.07940802 -0.04701836 -0.07483923 0.0300227 0.06294876 0.1152829 0.03979634 0.03151723 0.1222712 0.1451347 0.009989671 -0.01393674 -0.07720035 -0.04934367 0.1326161 0.08154362 0.1440556 -0.110468 0.029021 -0.1295117 -0.1486564 -0.1638125 0.06145643 0.08472814 0.1308131 0.008841397 -0.02009198 0.01280881 -0.02423964 -0.00606651 -0.1822224 0.001020343 -0.004147504 0.02947819 0.1391105 0.03974503 0.07052303 -0.05821305 -0.08865175 0.04406276 -0.03582161 -0.02445816 0.01808809 -0.004642659 0.004888549 0.07246023 0.1990858 -0.1623945 -0.1603782 
  -0.03972313 -0.01158862 0.0483833 -0.124799 0.0958011 0.09814186 0.007668402 -0.1029841 -0.03208067 -0.09487918 0.02367499 -0.06653 -0.1402647 -0.06387585 0.1923375 0.02097082 -0.05849595 -0.1795091 -0.008527954 0.2531252 -0.0968599 0.1363075 -0.0359274 -0.06973869 -0.06692695 -0.2805941 -0.03706594 -0.07066174 0.04219463 0.05447737 -0.228158 -0.04853453 0.03211523 -0.1270147 0.1730305 -0.1394303 -0.1474259 0.04222631 0.1710911 0.1185889 0.03094811 -0.06272417 0.06304716 -0.02848055 -0.0370153 0.09750428 0.08427057 0.01259977 -0.2503829 -0.02165472 0.02061407 0.06875955 0.06735324 -0.06335075 0.1548074 0.08473588 0.02413668 -0.03504109 -0.172383 0.1670202 -0.1692148 -0.04866723 -0.09106286 -0.03665628 -0.02435866 -0.06342644 -0.1972767 -0.1184319 0.002600289 0.03803173 -0.09539342 -0.03074794 -0.1184556 -0.1505578 0.03171486 -0.1094502 -0.1033 -0.03995337 0.02729985 0.02684233 0.05845835 -0.1547493 0.002876302 0.0381042 -0.03896017 0.009347973 -0.0128191 -0.1374845 -0.1662217 -0.1657474 -0.02093849 -0.06999952 0.1362819 0.04926754 -0.04906933 0.003436309 -0.03464479 -0.02648883 -0.2337258 0.05798442 -0.1350735 0.1648978 -0.07453022 -0.03693623 -0.05337287 0.2184881 0.1043205 -0.05592949 0.02049874 -0.02170063 -0.01657609 0.01584128 -0.01156152 0.03742131 -0.0261397 0.2053431 -0.0114967 -0.01575246 -0.05590979 0.1063716 -0.131517 -0.06262791 -0.1402833 -0.06125211 -0.001007506 -0.2466036 0.01732934 0.07704844 -0.1604315 -0.01737566 0.1333947 -0.2044598 0.08860075 0.03686747 0.02223133 0.1304197 -0.1353202 0.001293632 0.03177439 -0.2037035 0.09374564 -0.003518478 -0.226759 -0.1019477 0.1270038 -0.06767838 -0.09639031 -0.05299576 -0.01706038 -0.0979827 0.2263469 -0.1118542 0.1144785 -0.07240853 -0.0625613 -0.05164018 0.07683455 -0.1040683 0.04022802 -0.04566507 1.155397e-05 -0.000115162 0.2028297 0.01396352 -0.1276132 0.06922123 -0.05695853 -0.01183548 -0.005970924 0.1901231 0.1897523 -0.1620129 0.0423423 -0.004838362 -0.0002630866 0.01608302 0.06580079 -0.002989881 -0.07341714 -0.00545276 0.005495605 -0.01669263 -0.05796463 -0.2148377 0.1480651 -0.04721956 0.2266539 0.02350326 -0.0131791 0.07136527 0.09623486 -0.08448391 -0.04831409 -0.08222345 -0.1512424 0.05735319 0.03735479 -0.1315475 -0.1107393 0.139707 -0.002734574 -0.158374 0.09924123 -0.1106549 -0.07338566 0.002168615 0.1164239 -0.02168441 -0.07516377 0.04703411 0.1725398 0.08921804 -0.1538336 0.08960958 -0.2117359 -0.05737124 0.1228173 0.08645964 -0.03851844 -0.08943168 0.07219701 -0.003212729 0.004695559 -0.1766824 0.1556386 -0.1128844 -0.2093882 -0.01803189 -0.1322913 -0.01967643 0.07065689 -0.05420041 0.05817774 -0.09457775 -0.01057623 0.1554402 0.03683601 -0.07969885 0.009937497 -0.001929871 -0.02893992 0.06031549 0.224506 0.02775385 -0.02728612 -0.01050319 -0.1234461 0.1060246 -0.1054299 0.0263446 -0.005144845 -0.087933 0.02402519 0.1811653 0.0701475 -0.1627927 0.04303269 -0.1309505 -0.05486594 -0.04674404 -0.01524337 0.2195684 0.008503596 0.05625883 -0.02629972 0.04310932 -0.2369274 0.1195183 -0.1349916 0.02166136 0.0711468 0.03718938 0.01060859 -0.02136415 -0.04682976 -0.007388565 0.05322199 -0.08019561 -0.1483253 0.1124283 0.007560912 0.0474474 -0.0194779 -0.03120495 0.004666206 -0.07490007 -0.02671253 0.02894448 -0.05567701 -0.1269833 -0.06307417 -0.1029835 0.09984671 0.2161208 -0.09052283 -0.03615615 -0.06081124 -0.1145888 -0.0007193898 0.04919607 0.2244272 0.1468789 0.1086249 0.07136078 0.04849227 0.06229016 0.01056131 -0.01724335 0.03567118 -0.0494901 0.08814152 0.01016414 0.05341909 0.002756711 -0.05865664 -0.0317398 0.03463947 0.1033312 0.05533078 0.1653971 -0.02372613 0.1111617 0.09769805 -0.03247735 -0.0515346 0.03347055 0.0502477 0.1018128 -0.1599206 -0.03535265 -0.212513 0.01887801 0.1477736 0.04969984 0.02464579 0.1145576 -0.0105466 -0.199956 0.104855 0.1015981 0.0485714 0.1709919 0.07418889 -0.09552994 0.1267226 0.04101193 0.08377697 0.1106452 -0.04285082 0.1399687 0.06442616 -0.02339803 0.1373527 -0.04543783 -0.1552083 -0.04294057 -0.027248 0.09028787 -0.02188375 -0.07784773 0.01416043 -0.07826082 0.04534889 -0.168258 -0.009221004 0.1300844 -0.04671436 -0.002949252 0.09021657 -0.1760939 -0.01792432 -0.009762384 0.004123163 -0.06377603 0.1073664 0.002312943 -0.0004061901 -0.1490562 -0.02683472 -0.01519222 -0.03752719 -0.03088445 -0.04987974 0.1707972 0.02372361 0.03948338 0.2429042 -0.1073665 0.02736055 0.05120118 -0.04902296 -0.03472156 -0.03069809 -0.07305305 -0.1004469 -0.01672395 0.04749223 -0.05800396 -0.07732434 0.01657304 -0.0739094 0.102756 0.1288526 0.1315242 0.0390627 -0.1463643 -0.01849596 -0.1340729 -0.1774224 -0.15591 -0.003844023 -0.02259695 -0.1743125 0.03696417 -0.03901326 0.2402984 -0.1115469 -0.04534927 -0.05958831 0.1338123 -0.06388524 -0.02250131 -0.01507561 0.0169061 0.1980761 0.06767248 0.134264 -0.01371336 -0.02492089 -0.1469908 -0.009021608 -0.06231257 -0.07232505 0.1135081 0.09915695 0.0535851 -0.05337789 0.06303051 -0.09618621 -0.1558308 
  0.1106813 -0.05035583 -0.07066217 0.01667744 -0.05225287 -0.06866398 -0.002723573 -0.03423472 -0.03783714 -0.1117403 -0.1203516 0.04741332 -0.01911731 0.008319994 0.09307718 0.08693209 0.05154466 0.04870071 0.07534504 -0.2006169 0.08998164 0.04102018 -0.1185921 0.0900742 0.1482209 -0.1493045 0.1519137 0.0310802 -0.1654666 0.1009095 0.1198988 -0.00780082 0.03899316 0.1005996 -0.07929498 0.1093076 -0.06340124 -0.2299811 -0.07754871 0.09729886 -0.0009700299 -0.1244665 0.05634212 0.060304 0.0778679 0.02908027 0.121724 -0.01069918 0.1072313 -0.0602893 -0.08831171 0.1125281 -0.05125888 0.05967591 0.03477768 -0.004648006 0.03282991 -0.05700392 -0.07630714 -0.1129182 -0.0361178 0.118827 0.1772912 0.05470258 -0.06781361 -0.02200294 -0.2272777 0.183432 -0.008295783 0.051302 -0.06242439 -0.1104162 0.06253613 0.04472012 -0.03761401 -0.1006158 0.06880139 0.01584361 0.01071256 -0.05287232 -0.009094454 -0.04480036 0.1097327 0.02257671 -0.000445637 -0.2147193 -0.02040711 0.01156694 -0.01713252 0.03602041 0.01240462 -0.03753232 -0.2267424 0.1131491 0.1354298 -0.05974021 -0.07167444 0.1927503 -0.09222794 -0.144887 -0.07749001 -0.03012276 0.02339651 0.02638332 0.1107095 -0.119991 -0.1067938 0.1757368 -0.06965152 0.2387543 -0.06353161 -0.07169639 0.02293808 0.02212531 0.1053162 0.134771 0.02536551 0.05974999 -0.006624599 -0.1402929 0.01046193 0.01277653 0.2012802 0.02473233 0.1118798 -0.004300134 -0.04963254 0.02604479 0.02537831 -0.04377107 0.07988728 -0.0934919 0.1565403 0.1150696 0.196408 0.05771203 -0.04695979 -0.01115479 -0.1423053 0.0530165 -0.09974623 0.217417 -0.02854633 -0.02589914 -0.0149944 0.119788 0.1458958 0.03076086 0.175923 0.1542247 -0.006388702 -0.0136441 -0.03008513 0.02566532 0.1745717 -0.1707022 0.07669267 0.02753479 -0.07595503 -0.01362718 0.001341115 0.01572555 -0.08066259 0.008913113 -0.09596334 -0.0747695 0.00813979 0.1740807 -0.09326207 -0.1196262 -0.04359641 -0.04259378 0.08491214 0.1245771 -0.06568342 -0.05220506 -0.04625837 0.01978496 0.1983028 -0.01151718 0.02317178 0.008067459 -0.05604418 0.03544424 0.01616323 -0.128729 -0.06545594 0.04378741 0.1742395 -0.1471676 0.07725761 0.1154702 -0.02737044 0.01218981 -0.03639414 -0.01866028 -0.1879717 -0.2732881 -0.002469051 0.1047621 -0.06950903 -0.1149847 -0.1984511 -0.01295436 -0.1235105 0.01115448 0.1271972 0.1422564 -0.02046788 -0.01631918 -0.01324747 0.1098161 -0.01428354 0.0887097 0.1043844 -0.06866714 -0.06698737 0.07099207 -0.06237626 0.1020517 0.1951964 -0.116249 0.0007717119 -0.02899561 -0.1073589 0.08224821 -0.009545796 0.1614086 0.06372105 0.008276836 -0.02611919 -0.09749728 -0.2766573 -0.009039768 -0.2451446 -0.006235706 -0.008568639 -0.08474427 -0.07363984 0.1179537 -0.02584633 0.07393299 -0.05494282 0.09473218 0.1225458 -0.001683913 -0.003369448 -0.02627125 0.01450218 0.02685376 0.00542724 -0.001746083 0.03895247 -0.02460648 0.08406609 -0.1291274 0.03221294 -0.05405661 -0.01319479 -0.03983693 -0.08356526 0.01595832 -0.009030476 -0.04982365 0.01502636 0.08784386 0.1021815 0.1340833 0.03847352 -0.006807366 -0.02217062 -0.02759444 -0.09739628 0.01315857 -0.1821719 0.04073598 -0.05378247 -0.2464731 0.04337643 0.003819577 0.00319426 -0.01614733 0.06015426 0.02444234 -0.09568457 -0.1211417 -0.03105174 -0.08996228 0.06496634 0.1220465 0.1012327 -0.05068853 0.04777025 -0.07085701 0.07574677 -0.06627242 0.05646078 -0.08462361 0.3105917 -0.008735986 -0.02777523 -0.03696835 0.1134022 0.007833071 -0.1644169 0.1079926 0.1157142 0.1216457 -0.04992873 -0.04102995 -0.05232684 0.0305272 -0.0382757 -0.1419035 0.0452003 0.0367165 -0.09429264 0.1516874 0.003642982 0.1224951 -0.09840401 -0.03660719 0.07217713 -0.08253101 0.03151403 0.04296064 -0.00759696 0.01382461 -0.0513226 0.07248585 -0.05033927 0.08973143 0.1736083 0.01997413 -0.0484736 0.04599341 -0.06772579 -0.1475268 -0.04750084 -0.007497779 -0.05071254 0.003853661 -0.1327628 -0.182846 0.0855834 0.00521264 -0.01016053 0.1514295 0.06801052 -0.04443159 -0.05064561 -0.04704332 -0.05391716 0.08043392 -0.1454852 0.03798298 -0.01219145 -0.009242684 0.1584045 0.03946901 0.05757338 -0.06758969 -0.04312837 0.02425631 -0.0855053 0.1567048 0.03170248 -0.07324757 0.1545759 0.05391973 -0.05966406 0.01282979 0.1550729 -0.08690482 -0.1017594 0.1092413 -0.0666196 0.04677325 -0.08641457 0.06471926 0.04716851 0.2068036 -0.04065677 -0.02031317 -0.02965374 0.1961339 0.151556 -0.06937172 0.3149529 0.2368252 -0.0511057 0.05019591 0.1006793 -0.0007048556 -0.1114063 -0.08109283 -0.09505046 -0.1638858 -0.03506384 -0.02153493 0.02630777 -0.05347761 -0.05766437 0.1071036 -0.07108563 0.02602646 0.08009136 -0.02560817 -0.11465 -0.03524897 0.06424567 0.01306145 -0.04198836 -0.1801877 -0.004547882 -0.06873157 0.07183826 -0.21423 -0.1142761 0.1606909 -0.00710205 -0.05346052 -0.1104304 -0.01717602 -0.05427274 0.004634527 0.04655072 0.1599179 -0.04994769 -0.1116816 0.1601348 -0.003495303 0.01171635 -0.1733516 -0.1189206 -0.07313836 -0.01811277 -0.01868403 0.05051985 -0.07486264 
  0.129606 0.08873899 -0.1860298 -0.119207 -0.0268188 0.1334327 0.01209847 -0.1140848 0.1961248 -0.2291805 -0.1355883 -0.04681592 0.0446578 -0.05028434 0.02181954 0.008336875 -0.05864053 -0.04365211 0.0167771 0.2176782 0.07959203 0.01206475 0.001899453 -0.08870055 -0.09133653 -0.04039339 -0.08802629 0.05683744 0.03859211 -0.05629006 -0.008712899 -0.1406422 0.09054019 0.002521361 0.1220456 -0.4008095 0.1393192 -0.1945468 -0.05130479 -0.1070605 -0.1016901 -0.07012584 -0.1191704 -0.02715127 -0.04586218 -0.01450472 -0.2647633 -0.06019283 -0.1102406 0.01606154 -0.1277345 -0.1545599 -0.1102248 0.06509535 -0.04503303 -0.03645927 -0.05313746 -0.1305535 0.05707138 0.05151036 0.07344285 0.04196033 -0.07802856 0.07257126 0.02081921 0.001564895 0.03332179 -0.1182682 -0.1046376 0.03328945 0.08293523 -0.08644962 0.08334506 -0.004026129 0.01546236 0.09742304 -0.1511106 0.1338083 -0.07845876 -0.2120875 0.1467774 -0.0340388 -0.1454453 0.1536957 -0.01499265 -0.06388008 0.0002525279 -0.09520293 -0.01061285 -0.07757154 0.005893885 0.004859487 0.09352463 0.1081843 -0.0433373 0.08804127 -0.1133719 -0.05501453 0.05451049 0.07441428 -0.09611551 -0.1887326 0.1001942 -0.05678906 -0.08419815 -0.1810131 -0.07800046 -0.007913603 0.04631564 0.01165143 -0.01661137 -0.005158863 -0.08454318 0.1128178 0.02129531 -0.02742774 0.04414037 0.01373097 -0.2307089 0.06689701 0.1038566 -0.1140587 -0.03400512 -0.09570225 0.05853337 0.1270061 -0.06448876 -0.01314369 0.1835462 -0.1748009 -0.03205814 -0.02751112 -0.1033699 -0.1386411 -0.1377196 0.1448903 0.06776062 -0.0870766 -0.07413083 -0.0333139 0.02904305 -0.02947393 -0.1413799 -0.08437806 0.0557568 -0.02647977 0.01590317 -0.02629525 0.139067 -0.07622816 -0.1055299 0.1351895 0.09549454 -0.09379211 0.0842261 -0.1373897 0.1547813 -0.2154098 0.07108523 0.004429651 0.2446131 -0.04358311 -0.05389808 0.2029313 -0.06435822 0.1072676 -0.01805296 -0.03112224 -0.01271759 -0.0277774 0.01521674 -0.1087166 -0.06339293 0.02324458 0.08160713 0.001186836 -0.1303848 0.09711032 0.1457267 -0.007523234 0.06886385 -0.01030341 -0.04026585 -0.1197793 -0.06413417 0.04237446 -0.006212194 0.04877695 0.01324602 -0.06331149 -0.03464798 0.1146238 0.05511653 -0.01388585 -0.1167453 -0.07989243 0.05834082 -0.02559427 -0.1356479 0.02142683 0.01258497 -0.09670237 0.09437856 0.09745173 0.04977331 -0.1303031 -0.08806936 -0.1201783 0.04544686 -0.006951483 0.08579672 0.05732846 0.005081347 -0.02703817 -0.141915 0.08940965 0.1820055 0.084115 0.02646699 -0.0381328 -0.0130204 -0.06812472 -0.02822696 -0.02195551 0.05438314 0.05630431 -0.02591287 0.05365787 -0.107698 -0.1497859 0.004335021 0.09377225 -0.07676887 -0.1788551 0.1419559 -0.04337813 -0.1429092 0.1014616 -0.2675143 -0.02675185 -0.04638937 0.03047913 0.08174372 -0.225403 0.1054643 -0.07815376 0.0889532 -0.003016981 -0.1391822 -0.03108201 0.08609014 -0.2961054 -0.103615 -0.03098298 -0.04326323 -0.01259142 -0.03053389 0.06206693 0.027778 0.04134552 0.02283252 -0.09165166 -0.04618916 0.05323446 -0.1737951 -0.05432723 0.02134057 0.01798579 -0.1237326 -0.1870977 0.05780543 -0.1402094 0.04449002 0.02750883 -0.004428197 -0.2319339 0.02151015 -0.006263373 0.05587102 0.04804966 -0.05182141 0.0706499 0.1218645 -0.07286905 0.05781735 -0.1358537 -0.06700495 0.2623863 -0.04072729 0.03767369 -0.0388626 0.1072382 -0.1257644 -0.04718187 -0.1049353 0.06527631 -0.1715327 -0.1125782 -0.07960785 0.1023365 -0.07347854 0.03789354 -0.03025849 0.05784955 0.138529 -0.05985792 0.1065955 0.08053661 0.01799628 0.1059459 -0.1139072 0.04778302 -0.07348695 -0.09641787 -0.1409535 -0.1247499 0.03218431 -0.1655514 0.02192323 0.1334307 0.1929121 -0.1073859 0.04521158 -0.1009042 -0.01014897 -0.02143956 0.2390281 0.1104144 -0.0002456189 -0.1306704 -0.09379577 0.03459155 -0.04859401 -0.1765568 -0.08441526 0.05692316 0.06835848 0.001219072 0.02284711 -0.02897945 0.1537108 -0.08076283 0.05971981 -0.1239726 -0.06226207 -0.1066567 -0.1293238 0.08042642 -0.05359703 -0.08192604 0.1003099 0.02276627 0.2711631 -0.003954254 0.0683595 0.09017262 0.06698954 0.1128841 -0.02425111 0.04140839 -0.1093882 -0.00565422 -0.01097079 0.1254344 -0.08630931 0.01726087 0.0444584 -0.007789506 0.0539145 0.03866174 0.004227736 0.01506261 -0.04588697 -0.06311625 -0.1849784 -0.02239104 -0.06027494 0.07937491 0.01328822 0.0139135 -0.1594116 0.005671712 -0.05215229 0.02837903 -0.1634439 0.03085642 -0.04903885 -0.02422624 -0.01371909 -0.005720362 -0.003346502 0.01035133 0.003529906 -0.1933023 0.0194521 -0.03587026 -0.0707897 -0.05154722 -0.144792 0.05779297 -0.008813012 0.1558761 0.1601506 0.2382321 0.0584459 0.2170787 0.0194375 -0.05256765 -0.1089603 0.141262 0.05445323 0.1243962 0.01362409 -0.12584 -0.2083642 0.03043441 0.09486642 -0.006028513 0.07282006 0.04965714 -0.03931954 0.1103496 -0.04076317 0.09711839 0.05281196 -0.02244033 -0.04490371 0.006092774 -0.04930973 0.03876899 -0.0104868 0.02832408 0.06672466 0.1157472 0.1874882 0.1674425 -0.07880389 0.3914593 -0.03318338 0.3690359 
  0.001598336 0.1398591 -0.1232554 0.0464862 -0.04390392 -0.1630134 0.1032144 0.1026186 -0.03001883 0.07319773 0.2400045 -0.1251182 -0.1459863 -0.1679824 -0.10281 -0.008114393 0.3515019 0.4055836 0.3343591 -0.06948914 -0.06826567 -0.1505724 -0.1481936 -0.1024851 -0.01675366 0.06938077 -0.2511849 -0.03510666 0.0001773359 0.1309419 -0.01243166 0.04237457 -0.004712768 0.1485898 -0.003539 -0.1063969 -0.02023734 0.1160876 -0.1385129 -0.1496265 -0.01777606 -0.008115341 -0.1881153 0.1313722 -0.06478429 -0.1753553 -0.01053546 0.03597458 0.03651478 0.1475527 -0.07578974 -0.03481933 0.04843064 -0.1642453 -0.06623231 -0.0684782 0.1231764 0.2361354 0.2679248 0.002422686 -0.03359054 -0.2020217 -0.004495369 -0.08662362 -0.03025409 -0.06399471 -0.09587567 0.0926545 0.06910142 0.1215833 0.09372652 0.1425199 -0.03297245 0.06453568 0.09012574 -0.08794633 -0.02981338 -0.112369 -0.003505722 -0.1688129 0.04078269 -0.05511003 0.04800957 -0.1173829 -0.1061216 -0.0272466 0.03969419 -0.09317973 0.02273877 0.0512517 0.2589193 0.1455453 0.006687808 -0.2048752 -0.01223271 -0.02746713 0.1527591 0.2968048 0.1096783 0.03382198 -0.06192438 -0.09290907 -0.05575296 -0.04825195 -0.1094043 0.006186051 -0.1712306 0.01281305 -0.04786992 0.1352058 0.05581671 -0.04219507 0.09835003 0.04780298 0.06729256 -0.02786426 0.06009027 -0.0369839 -0.1034259 -0.0507567 -0.03347047 0.05119304 -0.04489098 0.1240469 -0.06569295 0.02353449 0.01472663 -0.07962844 0.01770575 0.06295399 0.04738882 -0.09096546 -0.1423656 0.1049698 -0.1659832 -0.1050169 -0.01123808 0.4041977 0.0206802 -0.2151132 0.07503401 -0.1000666 -0.03300634 -0.1881552 -0.04570481 -0.02618877 -0.06111798 0.03760377 -0.04786693 -0.03164703 -0.07159554 -0.03733401 0.1148362 -0.06940319 -0.008697136 -0.009041434 0.009844063 0.08230382 0.0466498 0.08785849 0.003003031 -0.01216123 0.07078926 -0.04957485 0.103094 -0.009227693 0.125792 0.06269162 -0.001038701 -0.07292525 0.1771477 -0.04099403 -0.009737513 -0.264869 -0.2600285 -0.2432752 0.2344836 0.2254772 0.2336351 0.08786544 0.09301462 -0.003199551 -0.04538037 0.02690172 0.02990151 -0.05796284 -0.192004 -0.1817722 0.05045808 0.03759916 -0.05659892 0.1062123 0.01339116 -0.1475486 0.03492051 -0.1142077 -0.003300716 -0.01603458 0.06105912 0.06944335 0.01493456 0.08605839 0.06996543 0.008403162 -0.1788059 0.09545892 0.0402935 -0.00812275 0.01489865 0.05976287 0.04723481 0.04560084 0.2105477 -0.3079674 -0.2273536 -0.03745876 0.02109946 0.3466735 0.2643396 0.04605141 -0.06491639 -0.1470224 0.1725452 0.05693779 -0.08926751 -0.1564646 0.08423977 0.05009045 0.1270713 -0.06645416 0.008919922 0.03955806 -0.02566999 -0.03696553 0.09226163 0.07054561 0.01358067 -0.0321898 0.05854769 -0.1278799 -0.104988 0.05926066 0.0310813 -0.007591622 -0.01241234 0.1315348 -0.1350484 0.05260313 -0.1141298 0.1945001 0.2210179 0.09266372 0.006214077 -0.2844259 -0.2393487 -0.08177142 0.118829 0.2349818 0.2435641 -0.0411543 -0.1931481 0.03979955 0.09787416 -0.1727653 0.03414237 -0.003305288 -0.02640119 0.0542172 0.02568447 -0.07569081 -0.04687189 0.1246175 0.07206499 -0.06590366 0.02691385 0.05261681 -0.1316955 0.04606906 -0.06984558 -0.006184088 -0.006327865 0.1312302 0.03037754 -0.05405586 0.02660112 -0.09036952 0.0311702 0.07991343 -0.08102646 0.1204166 0.02773564 -0.03362884 0.0294802 -0.181141 -0.2618545 -0.1558776 0.0409399 0.1833976 0.06557051 0.204884 -0.01682662 -0.02353002 -0.1417821 0.04765747 0.0767599 -0.1541049 -0.0177651 -0.02386797 0.1053075 0.06818447 0.04565432 -0.03776635 -0.1350032 0.0886592 0.04644411 -0.008014531 0.0520811 0.1003481 -0.007728538 0.06507663 0.05513015 -0.04456258 0.07067062 -0.05306638 -0.03223698 0.001683642 -0.1205354 -0.03403582 0.03538511 0.1817251 0.1273044 0.04128426 -0.04510651 -0.2772417 -0.1728276 -0.02482386 0.08203328 0.1284113 0.3354929 0.2132387 0.01380032 -0.07786854 -0.1611716 -0.03218846 0.09757591 -0.1574803 -0.007706068 -0.05184114 0.08537155 0.234616 -0.09432323 -0.02525212 0.01793947 0.07779397 0.2054607 -0.2094884 0.0040768 0.2417794 -0.1674805 -0.08196364 -0.131192 0.1769625 0.0959636 -0.1462958 -0.2104603 -0.04405072 0.1040563 0.009763663 0.05410803 -0.0284717 0.1939122 0.0399229 -0.001564101 -0.1100344 -0.3009818 -0.01948483 0.1845268 0.2646051 0.1317643 0.009907009 0.1108498 -0.1879182 0.1378131 -0.1010129 -0.02049501 -0.0414123 -0.03136833 -0.02204524 -0.0134594 -0.005278292 -0.005251043 0.1277773 -0.2007912 0.1306039 -0.09341553 -0.05676508 0.07806641 -0.07389849 -0.01843796 0.0457111 0.005198637 0.187049 -0.03934311 -0.0276945 -0.04315669 -0.05264446 0.06508709 -0.09070054 -0.1579344 0.09061167 0.1771092 -0.09836005 -0.2227507 -0.2457297 -0.3415694 -0.196427 0.2455177 0.07818028 0.1065901 0.1126563 0.03815694 0.04606546 0.04103032 -0.01099274 -0.08497827 0.006865227 0.01368242 -0.005660271 0.09151869 -0.06450254 0.02791921 -0.02221932 -0.1848981 -0.1504475 -0.001108453 -0.1142421 0.2222362 0.09055092 -0.05696705 0.04875647 
  0.2275292 -0.1077449 -0.01542964 0.2226541 0.09206709 -0.07856792 -0.2754336 -0.1876421 -0.28269 -0.08105647 -0.2142449 -0.2037947 -0.1486932 -0.1732022 -0.08484454 0.1340939 0.2360591 0.3088121 0.3409882 0.2571065 0.2689422 0.1902295 0.1205523 0.1878011 0.01473269 0.03005153 -0.08621329 -0.2438872 -0.06525564 -0.1544122 -0.237802 -0.0637019 -0.02805882 -0.1959486 -0.02131769 -0.01641436 0.0300688 -0.04874207 0.04002737 0.05005191 -0.03803577 0.04373032 -0.1453296 0.05214794 0.03937056 -0.1431599 -0.1211833 -0.04632991 -0.09029729 -0.01419677 0.05667417 -0.08070005 0.1296662 0.2371323 0.1530803 0.1814833 0.1999721 -0.08688488 0.05623024 0.1296638 0.07468374 0.1369109 0.1723779 -0.0322524 0.08255452 0.01034914 -0.002823961 -0.02441883 -0.1281901 0.02765966 0.05675218 -0.07777771 -0.05782031 -0.1576829 -0.06895144 -0.1728615 -0.06184606 -0.1232177 -0.01945996 -0.06243813 0.07564417 -0.06465397 -0.03899987 -0.2037554 -0.05197535 -0.1782497 0.07422488 -0.0211719 -0.1515819 -0.02978527 0.03901469 0.09334576 0.2412196 0.2309967 0.2173448 0.1434523 0.001535769 -0.005088266 -0.005870088 0.07033832 0.003781392 0.1188866 -0.05949615 0.1480041 0.04173193 -0.1175172 0.07465525 -0.02086005 0.01250695 0.003118315 -0.01741098 0.02821077 -0.03272535 0.003877103 -0.006334767 -0.06202836 0.1352338 0.00100933 0.0327576 -0.03331856 0.0006275463 0.06921809 -0.1346066 0.06329944 -0.07369138 -0.03054263 0.01466657 -0.1334266 0.01145299 -0.1296331 0.1147455 0.2710368 0.2997625 0.2168729 0.1566479 -0.01260548 -0.183316 -0.1105842 -0.1420395 -0.1367776 0.05941571 0.07914798 -0.008635758 -0.03229659 0.05611517 0.2115294 -0.06417447 0.1306458 0.09298031 -0.08005651 0.1030953 0.00147217 -0.04759136 -0.02343317 -0.04985789 -0.03737976 -0.1025298 0.06880409 -0.04427124 0.02186626 0.0151586 0.01839629 0.1797865 0.0233695 -0.2496151 0.06210329 0.1042126 0.03988173 -0.06210935 0.1279481 0.3110914 0.1535502 0.1981438 0.1979614 -0.02489718 0.07800393 -0.140672 -0.297656 -0.2344734 -0.1573242 -0.1854263 -0.1818648 0.01582677 -0.03826536 -0.02681186 -0.1161166 0.0002961404 0.03646311 -0.03213257 0.2435754 -0.06765157 -0.1033564 0.0324312 0.07914977 0.0230805 0.09829602 -0.07571543 0.03462423 0.0443844 -0.05567337 -0.01202313 0.0485505 0.1397479 0.07159583 0.0905045 0.03915941 0.0493812 0.1884815 0.08148452 -0.1554612 -0.0942385 0.09715421 0.3013353 0.104737 -0.01441792 -0.04592753 -0.3124235 -0.1978714 -0.2523182 -0.1575148 -0.0345638 -0.01766714 -0.08353104 0.07515603 -0.0407734 0.03224819 -0.01546287 0.02507419 -0.02516845 0.09919506 -0.1198676 -0.0784527 0.01506503 0.0693428 0.06022514 0.1574103 -0.09606817 -0.0209241 0.006633696 -0.04073764 -0.09601496 -0.0664731 0.1695874 0.01811306 -0.04532802 0.139579 0.07715094 0.1016951 -0.02826046 0.04929292 0.1316445 0.08300727 0.1408782 0.1692542 0.2281487 -0.106776 -0.09605978 -0.2084733 -0.1321998 -0.124611 -0.1825109 -0.1436266 -0.01157135 -0.06365527 -0.07929673 0.03103267 -0.172711 0.03763739 0.1022414 0.05291379 0.1559646 -0.04940821 0.1087294 -0.1049964 0.2653848 -0.01271623 0.08413798 -0.08916606 0.07879781 -0.1489923 0.08001615 -0.0952273 0.09913279 0.02229471 -0.1953924 0.03867603 -0.04114677 0.1257755 0.01169304 -0.04168919 0.05818285 0.03771769 -0.001462739 -0.05453618 0.1165352 0.03138569 -0.009042113 -0.1187055 -0.2185774 -0.2104136 -0.02189389 -0.08190295 -0.1335227 -0.08395798 -0.01308241 -0.01504605 0.05874508 0.06344653 0.06889037 -0.05677173 -0.01927122 -0.007660482 0.02648297 0.2114257 -0.156541 0.1228009 -0.0410919 0.09751846 -0.04842741 0.09487033 -0.1107757 0.1364657 -0.0732712 -0.2320254 -0.184254 0.1712896 -0.053334 -0.0518118 0.07494465 -0.04993347 0.07227822 -0.02844958 -0.07106671 -0.0544663 0.05218365 0.04614353 0.1338988 0.102453 -0.1570507 -0.07268589 -0.05321239 -0.04765255 -0.1683892 0.09676305 0.005904398 -0.07707577 0.04452362 -0.1228848 0.1097176 0.2099018 0.1250803 -0.03667067 0.00373344 0.06416984 0.1011009 0.01431117 -0.02330767 0.09212866 0.1408942 -0.06664272 -0.1134254 0.05560043 -0.06329882 0.08414003 -0.008640568 0.006364935 0.02402337 0.09783901 0.1527396 0.1085798 0.05569724 -0.1757801 -0.01652606 -0.1391027 -0.0401981 -0.03324665 0.111958 0.1106633 0.232457 0.04151696 -0.1027579 0.0180461 -0.06215482 -0.2263232 0.04843928 -0.05261949 0.01551118 0.07301527 0.0122031 -0.03840934 -0.00540218 0.04108492 0.08462507 0.002568803 -0.0726201 0.1409896 -0.01851345 -0.07031346 0.03514024 -0.03970748 0.07527961 0.06925815 -0.01123457 -0.3610634 -0.1257162 0.1292023 0.1533748 0.2712416 0.384075 0.08635384 -0.156356 -0.3278148 -0.2722526 -0.09552058 -0.2614405 0.02407994 0.1341692 0.1508293 0.04660669 0.1594244 0.09161468 -0.03037483 -0.1654575 -0.08516844 -0.06401196 -0.01682063 -0.02584482 -0.1218067 -0.1448124 0.05414156 0.1042908 0.01996217 0.1108247 -0.169401 -0.007159656 -0.08161914 0.008592529 0.03294368 -0.1104516 0.02003215 
  0.04324345 0.006834489 -0.1090427 0.1314924 -0.2119132 -0.07030881 -0.06310449 0.1273684 -0.09523391 0.03665391 0.121658 0.1317604 -0.2654203 -0.2475686 -0.1163769 -0.03225504 -0.07683334 0.05629932 0.05575388 0.04753692 -0.0006350427 0.1293934 -0.05500495 -0.02527846 -0.1120124 -0.05415913 0.1074935 -0.1753838 -0.04706172 -0.06071733 0.003660498 0.1013592 0.119505 -0.0203892 -0.001217173 -0.1358518 -0.04016999 -0.141037 -0.1214692 -0.2634471 -0.02129791 0.01314816 0.05309446 0.06185805 -0.1626005 0.09131858 0.07382205 -0.01658701 -0.08446727 0.1019797 0.05015415 0.1073649 0.06343351 0.1143919 -0.1668887 0.09483162 -0.1267339 0.1019634 0.03104785 0.03180699 -0.09696861 0.04845398 0.03560223 -0.09009159 0.1153582 0.09091207 0.06178761 -0.04445015 -0.02599536 0.09943081 -0.006177642 0.1770931 -0.06087296 -0.07453025 -0.03502942 -0.1193582 -0.07246633 0.09410956 0.08171267 -0.08478049 0.00122704 -0.1080397 -0.1328786 0.0398173 0.04388005 -0.1066299 -0.01012458 0.1594551 0.1061171 -0.03706844 0.04959382 0.1590974 -0.1270987 -0.1697053 -0.06716182 -0.02101713 -0.07357392 0.05424936 -0.03691861 -0.1521265 -0.02497138 -0.02824458 0.03930964 0.04557401 0.1794966 0.04847292 0.01467555 0.004282393 0.01714232 0.07648435 -0.04855622 -0.009706504 0.1828861 0.05186212 0.1212221 0.05838269 -0.1251305 0.05747825 0.005610809 0.1913953 0.1393291 0.07851654 0.1975041 -0.1147592 0.1173127 0.03904343 0.054261 0.00771632 -0.003248355 0.007840138 -0.09223832 0.1335832 0.1691662 0.02535323 0.1529654 -0.3216298 0.2133283 0.06887803 0.1427848 -0.07209048 -0.06590287 0.0252019 -0.1698417 0.09850635 -0.1468262 0.174007 -0.2249753 7.569406e-05 0.0636339 0.128406 0.04687657 0.1360898 0.156746 -0.1803926 0.05641732 -0.01864311 -0.1703163 -0.04232721 0.002638961 -0.162992 -0.1775025 -0.03925144 -0.3215823 -0.07474123 -0.03703338 -0.1126368 0.02115665 0.005919412 -0.1141227 0.003439666 -0.1143605 -0.09210622 0.02421415 -0.04537253 0.08857706 -0.01518491 -0.06672788 -0.2368168 -0.04322017 -0.07172479 -0.007138005 -0.03121667 -0.06565064 -0.004159125 0.08916603 -0.3095884 -0.07450092 0.1885155 0.0914536 0.1140472 0.1383826 -0.07061193 0.02049005 -0.09688591 0.0006823626 -0.0352421 -0.007248627 -0.006293219 -0.05988153 0.07142718 -0.1035689 -0.1422925 -0.1674987 -0.1267495 0.005603911 -0.09359757 0.02664541 -0.03853709 0.05508735 0.02177704 -0.1419727 -0.005540219 0.02553446 -0.0307741 -0.1165927 0.07899503 0.03084446 0.1096669 0.1684111 -0.0911177 0.04212825 -0.01281512 0.2337119 0.1265543 0.03249313 0.100534 0.1115438 -0.002840127 -0.06239071 -0.02365632 -0.07442206 -0.112271 0.1532806 -0.1034816 0.03283477 0.02064674 0.03787563 0.09420557 -0.05682116 0.07314845 0.05633561 0.2376552 -0.02912347 0.01565415 0.03826352 -0.286987 -0.05645828 0.02264535 -0.05168641 0.05410674 -0.07736611 -0.02533606 -0.1181972 -0.1180665 -0.007790291 0.06268208 -0.1679345 0.07822971 0.2554888 0.05040189 0.04783478 -0.1137698 -0.1947832 -0.1162702 -0.08198939 0.07800668 -0.209253 -0.07545874 0.2020762 -0.04291603 0.0297881 -0.1283731 0.1688738 -0.09459121 0.1271556 0.1283177 0.001513633 0.07804076 0.1567798 -0.09239484 0.05180899 0.1257635 0.1009278 0.01652808 0.01560294 0.1730942 0.06256764 0.1184268 0.1802573 0.09030356 -0.1228183 0.134944 0.1393602 -0.1915441 -0.06691372 0.01066648 -0.03590907 -0.04836241 -0.1233723 0.08340448 -0.02754842 0.1171277 0.05998443 -0.04495817 -0.01327017 0.04644062 0.02906776 -0.01038544 0.1428753 0.03651269 0.001540756 -0.09939796 0.2201596 -0.08502965 -0.09292942 -0.07838976 0.06241497 0.132715 -0.01936242 -0.03704704 -0.07676294 -0.1395028 0.05620406 -0.05657115 -0.1524895 0.03477073 -0.0007867041 -0.0009034103 0.1007044 0.1109618 0.1126578 0.1199403 0.03038205 -0.1681241 0.05931281 0.001835599 -0.01127668 -0.05278752 0.01152881 0.1130838 0.02010452 0.2380884 0.08933876 0.09250829 0.02253273 0.003959604 -0.03131888 0.1193565 -0.09987265 0.0922527 -0.1534427 -0.02027923 0.00683492 0.02773068 0.03332323 -0.03992803 0.2056379 -0.1324592 -0.2395947 0.09573577 0.05625095 0.01521158 -0.0933734 0.2024221 -0.05476038 0.04743783 -0.07642063 0.1006438 -0.004517268 -0.1699351 0.02321361 0.03650093 0.1269146 -0.09304488 0.1086313 0.08181419 -0.03234794 -0.05186076 0.01325803 -0.09168319 0.04833244 0.09348313 0.03927583 0.01105637 0.06933901 -0.1423879 0.05530226 -0.12454 -0.01414705 0.008990279 0.02058235 0.009878583 0.01320945 -0.2784049 0.003766798 0.103147 0.04902311 0.03968542 0.01471108 0.02422431 -0.03516781 0.169966 -0.05563923 0.04445153 -0.1495304 0.01942913 -0.000433377 -0.01194163 0.2855048 0.07853671 0.1892104 -0.03521431 -0.04006533 0.01385654 0.07652206 0.1286765 -0.05811155 -0.01113512 -0.148562 -0.02977395 0.1978898 0.02622574 0.07800213 -0.1491071 0.04799706 0.1317491 0.1077037 0.047176 -0.08195087 0.07841909 0.1676809 -0.1373487 0.07498723 0.2052502 -0.1094685 -0.04153788 -0.03971719 0.1278391 -0.02531334 -0.02521915 
  0.02763962 0.1011073 0.02558755 0.0036416 -0.04719675 -0.0519361 0.1311174 0.02794231 0.3438136 -0.1438204 0.1098589 0.08256476 -0.005154511 0.07509556 -0.09049649 0.02228325 0.03775928 -0.1812836 0.02317358 0.1894675 0.2183548 -0.08941971 -0.03682204 0.094722 -0.004942261 0.1030893 0.01701666 -0.1020917 -0.1029596 0.1102458 0.2368683 -0.1820781 -0.003125424 -0.04569139 0.2364646 0.06314115 0.1003927 0.09190395 0.04571985 -0.01623025 -0.02213397 -0.1086815 -0.1396282 -0.01430713 -0.2344053 0.07684696 0.0324721 -0.05121072 -0.2402659 0.04064981 -0.1066078 -0.1577161 0.05527811 -0.09464479 -0.1145509 0.06942918 0.08260323 0.02485989 -0.07913246 0.004056121 0.03756075 -0.04696504 -0.05533276 0.05798958 -0.01289831 -0.3337637 -0.01344854 -0.03193949 -0.2021373 0.1523998 0.02114371 -0.2802034 -0.04997536 -0.1396503 -0.005380943 0.1163434 0.02162574 -0.1117887 0.06405012 -0.06541578 -0.06931342 0.1308912 0.01502676 0.07724647 -0.01577374 -0.001028914 0.1138673 -0.1668425 -0.09936994 -0.02325521 -0.07224102 0.1144179 -0.01379389 0.04268314 0.05237323 -0.04074994 0.1105795 -0.04335404 0.146054 0.1835571 0.02690645 -0.04133315 -0.007157394 -0.0002989506 -0.05215523 -0.05345656 -0.2034377 -0.1740149 -0.007382064 0.01401712 -0.06812783 -0.0207707 -0.06987126 0.00596065 0.04859789 -0.004302337 -0.2227815 0.02588139 -0.07409883 0.0002573378 0.1059426 0.1093252 0.0153416 0.04364054 0.00271375 -0.03348939 -0.009419368 -0.0464753 0.009928886 0.1895667 0.1271989 0.1373795 0.1556035 -0.05906534 0.03831236 0.004105494 0.08987466 0.02193471 0.01800003 -0.1188611 0.120105 0.05023864 -0.1016083 -0.008703035 -0.001761109 -0.04693528 0.1129845 -0.02549428 0.1932376 -0.03752698 0.09927915 -0.1040314 0.07103099 0.01507034 0.03975295 -0.03160232 -0.2136035 0.08238526 -0.01507369 -0.005863474 -0.009159707 0.04844251 -0.05298885 0.1300697 0.1233835 -0.1422158 0.06572189 -0.1925797 0.0698107 -0.01062293 -0.08682097 0.02290635 -0.08868757 -0.1476178 0.1637446 0.02868162 -0.07468481 -0.1465127 -0.1468183 -0.1076792 0.0002355365 -0.01834183 -0.003158258 0.09033291 0.09823433 0.03639024 -0.1602284 0.07311692 -0.04058165 0.1253627 0.09461267 -0.001729049 -0.1057641 -0.05659237 -0.08328265 0.07436368 -0.01424231 -0.07719779 -0.02389179 -0.0280982 0.008108404 -0.02020958 0.05340113 -0.1122158 -0.01539653 0.04909106 0.09780102 0.1155572 0.004308304 0.02210609 -0.0008065206 -0.06559983 0.1797487 -0.1607538 0.04916115 -0.1420944 0.1305258 0.2106612 -0.1488137 0.08618149 0.08956818 0.2364136 -0.1789699 -0.04401987 -0.05168372 -0.001907517 0.09924205 -0.03761138 0.08520021 0.02834905 0.09698474 -0.1109843 -0.1445353 -0.1211054 0.1856383 -0.1379839 -0.1646061 -0.005191207 -0.04257365 -0.01245877 -0.2636588 -0.06319162 -0.04039379 0.04509652 0.01263527 0.2857362 -0.03278569 0.03408638 0.182949 -0.008251915 0.2397099 0.04184257 0.09735652 -0.02472775 -0.09794793 -0.06894422 -0.04338771 -0.03233984 0.0465787 0.1001663 -0.0904047 -0.1743648 0.01626651 0.08162271 -0.03785538 0.1431297 0.1282701 0.1612943 -0.20347 -0.1407258 0.04926261 0.05620762 0.08988858 0.04729572 -0.001648416 -0.04225901 0.1520071 0.2228792 0.001171451 0.05812351 -0.1795991 -0.06769218 0.04467556 -0.1137281 -0.1112856 0.0611713 -0.04645134 0.009636072 -0.05252056 -0.02268146 0.1102688 0.007997866 0.01427225 0.07424289 -0.1047853 -0.01465545 -0.03362278 -0.07801624 0.05623601 -0.04718217 0.1182357 0.09398176 -0.07702845 0.09011728 0.02886122 0.1970505 0.05347767 0.04681592 -0.06225453 -0.0594045 -0.0157294 0.1790182 -0.08679545 0.02790007 0.1188824 -0.1018151 0.1450485 -0.07570776 0.01221824 -0.1275014 -0.06611776 -0.06192158 0.008665464 -0.03876287 0.1296975 -0.04687646 0.009753264 0.162972 -0.1827784 -0.06914563 0.09615821 0.07614539 -0.01919052 -0.1240013 0.04743034 -0.007499285 -0.1394954 0.02664819 -0.1273815 -0.1768687 0.07613444 0.01972593 0.07832488 0.02578833 -0.1024934 0.07256518 -0.0102778 -0.006895862 -0.01648314 -0.06266877 -0.04651698 -0.07006056 -0.1267943 -0.09490699 -0.147526 -0.03481978 0.0446369 0.1037353 0.04018096 -0.03055827 0.06202405 0.08497395 -0.05866088 -0.1078717 0.1664281 -0.01235969 -0.06191227 0.05378592 -0.1039543 0.06560759 -0.1471507 -0.09753412 0.1695306 0.07939903 -0.0261498 -0.1100345 -0.006746972 0.05111613 0.02077615 0.1068301 -0.01538955 0.05415092 0.03174707 0.06446273 0.05010043 -0.1704821 0.0791803 -0.1796964 -0.02724448 0.0008454494 -0.0214183 0.1637076 -0.003193693 -0.1698391 0.01642657 -0.1092475 -0.006737766 0.1317493 0.02411379 -0.1279825 -0.07997219 0.03809556 0.1074654 0.1147322 0.01879884 0.03053667 0.1165672 0.05297006 0.06881555 -0.05222972 0.05097587 0.0424893 -0.0166995 -0.2055727 0.05226442 0.00819929 0.02328788 -0.01819022 0.03276047 0.03619872 -0.1271096 0.0112262 0.08297615 0.02315662 -0.03145307 0.03489116 -0.08750746 0.05702923 0.06624996 0.07961807 -0.1782967 -0.04346707 -0.1208708 0.1515456 0.07483319 0.08519649 0.0260582 0.1598224 0.2286591 0.2818163 
  -0.08835503 0.01086701 -0.02125027 0.004114243 -0.06669118 -0.108164 -0.2441988 -0.2483405 -0.2354513 -0.009285174 0.08836236 0.005283338 0.1652259 -0.001215975 -0.04935928 -0.07633545 0.3000181 0.2632149 0.1396893 0.1678328 0.1203739 0.07594727 -0.06180796 -0.1502202 -0.1179181 -0.1787876 -0.09865475 -0.02745095 0.2245291 0.05073421 0.05645642 0.08649705 0.1143567 0.00505103 -0.0878841 0.1572307 0.1677808 0.2674562 0.07970949 0.1134223 0.1977483 0.0003633243 -0.1569953 -0.08534884 0.1554452 0.0381734 -0.102214 -0.08729851 -0.02707474 0.04883855 0.1114253 -0.2012389 -0.1104263 0.0256511 0.1490738 0.1312311 0.2763804 0.02378178 0.06913942 0.04805101 -0.03445119 -0.06492846 0.01529263 -0.004333681 -0.1318557 -0.1648168 -0.08797532 0.1181294 0.1015984 0.02866882 0.02067784 0.112683 0.114048 0.103654 0.05586785 -0.04902238 -0.02680316 0.02762404 0.09951515 0.2349623 0.06457588 -0.001540844 0.08945183 0.2086163 0.03988464 -0.03641795 -0.1281339 -0.01496273 0.1451561 0.07910421 -0.222575 -0.01690936 -0.2445404 -0.07502531 0.07504579 0.0344015 0.04299795 -0.03881629 0.13977 0.07121501 -0.01698457 0.08839293 -0.0513276 0.03667655 -0.138904 -0.05625381 -0.04401586 0.07504787 0.09130181 0.08235145 -0.01182596 0.05226944 0.02645862 0.02501795 0.03726102 -0.1844849 0.04617118 0.07482948 -0.08797745 -0.04125358 0.07643926 0.1353245 -0.05337894 0.04284748 0.1105882 0.05605623 -0.06272505 -0.009515275 -0.07713237 0.05916587 -0.06967174 -0.2018292 -0.02177621 -0.0446009 -0.05420191 0.1633684 -0.09337943 -0.04371267 0.056362 0.03894585 0.0379895 -0.07811708 0.09699367 -0.07943492 0.02072499 -0.01402782 -0.02307736 -0.1304209 -0.03291473 -0.05341335 0.03009344 0.1128425 0.0124675 -0.1129006 -0.1065352 -0.1027389 -0.05901114 -0.00180157 -0.02280003 -0.110545 0.05887506 0.01023743 -0.08917658 0.1426996 -0.1815878 0.04792338 -0.03623386 -0.06092369 0.09106179 0.06267722 -0.016173 -0.06697112 -0.1217758 -0.07941726 0.00669944 0.03073248 0.1610432 -0.02406683 0.02945085 -0.09843857 -0.1494119 0.1518634 -0.2071237 0.02702484 0.09505357 -0.04163136 -0.08295904 0.1083867 0.09054827 -0.04229526 -0.04116938 -0.04873205 0.1497698 -0.1054268 -0.03459557 0.1038638 -0.1291612 0.03650295 0.01250592 -0.0346834 0.09386947 -0.09509258 0.1334289 0.09541195 0.2257706 -0.0583079 0.09792852 0.04437943 0.1722631 0.05281658 -0.1701206 0.07972328 -0.07873103 0.0627069 0.04135001 0.05594765 0.01170032 0.03727784 -0.02509173 0.1158832 -0.04624837 -0.1197327 0.06717607 0.03504977 0.007134126 -0.02963887 0.0003183846 0.06097216 0.1227951 0.04345289 0.08681262 0.01744967 0.0216985 0.05409751 -0.1029979 0.03581147 0.0954021 -0.03426367 0.1926698 0.05177075 0.01708997 0.09516229 -0.1135323 0.1819433 0.06243958 -0.05147895 -0.03543451 0.03600722 -0.0832775 0.2048663 0.01886843 -0.04759332 -0.02698663 0.1278876 0.1819768 0.204549 -0.07833371 -0.09141532 -0.03516728 -0.2026303 2.181719e-05 -0.06865422 -0.01614958 0.01305281 -0.0147864 0.1265727 0.03060248 -0.01840327 0.02341882 -0.0002893124 0.05697272 0.03196258 -0.03407817 -0.04741161 -0.0222597 0.05064454 -0.0427268 0.09622417 0.1943445 0.1907749 -0.01656777 -0.03266319 0.05018452 -0.09016655 0.1211529 0.06182499 0.1848047 -0.03179833 0.03147416 -0.08443639 -0.0822924 -0.06890631 0.03307672 0.0593717 -0.01995692 -0.1058924 -0.08102242 0.05157324 -0.09473846 -0.170968 -0.01461982 0.08482543 0.02357865 -0.005051816 0.2247444 -0.05627018 -0.0637636 -0.1743218 0.01270513 0.006050315 0.146361 0.08514311 0.1302286 0.06135737 -0.02189337 -0.03871234 0.1949804 0.11434 0.1466613 0.03493427 0.04779381 0.02071675 0.02467492 -0.04318255 -0.01197425 -0.06515285 -0.1108299 0.1001672 0.04304257 -0.02214081 -0.132863 -0.01140441 -0.07377642 0.0009186415 -0.06977526 0.05175323 -0.1050181 -0.153445 -0.01522381 -0.05224692 -0.1813505 -0.09494098 -0.005666827 -0.1054858 -0.104871 0.03307206 -0.05353652 -0.05889217 0.1896735 -0.04825776 -0.03768482 -0.06948666 -0.03655278 0.1935586 0.09355628 0.05278289 0.1355439 -0.05212314 0.1951218 0.01641472 -0.1560244 -0.0635395 0.06344794 0.02214292 -0.0339136 -0.1345906 0.1401807 -0.1114921 -0.04357115 -0.1093471 -0.09156218 -0.08882386 0.02858297 0.05627631 -0.00257051 -0.0405114 0.07801041 -0.1157537 -0.0286188 -0.1428182 0.060817 -0.06377182 0.09307948 0.1583794 -0.03994091 -0.1287214 -0.1629942 -0.08434348 -0.1518949 0.05098133 0.00299665 -0.1360501 0.04319865 -0.1148889 -0.02617789 -0.1938689 0.1304717 -0.06144191 0.01803542 -0.01986818 0.1009481 -0.114092 0.0536892 0.0907097 0.05229717 0.1261165 -0.06820165 -0.1071478 0.08475649 -0.1216384 0.1036441 0.0536127 0.09262644 0.2051602 0.1748018 0.04989752 0.182207 -0.1416874 0.007458955 -0.07894087 0.008372377 0.01680414 0.08786298 -0.06317525 0.03884425 0.03230464 0.03087622 -0.08876293 -0.09995454 -0.07612902 -0.08823056 -0.05474011 -0.03589847 -0.010673 -0.04636905 0.1209781 0.09503359 -0.06400306 0.06775323 0.08161851 
  -0.005469597 -0.2388011 0.1085988 -0.01687141 -0.1613775 -0.1215877 0.07392451 0.08473488 -0.02402059 -0.191321 0.09310635 -0.102355 0.2488927 0.0373734 0.07480567 -0.06982765 0.04676798 0.08319861 0.01400971 0.03824056 0.05757049 -0.08738301 0.03739868 0.005494171 -0.05383094 0.1000138 0.07776108 -0.05549122 -0.06434906 0.150105 0.03820142 0.104072 -0.03277565 0.1616931 0.03492117 -0.02447467 -0.2548496 0.06286338 0.06493287 -0.07270942 0.05361037 0.08401072 -0.004077063 -0.01018822 -0.02257698 0.00305102 -0.0165929 0.1533622 -0.1915362 0.05066152 0.04886007 -0.05928587 0.1723469 0.0737664 -0.002355364 -0.09270055 0.1066888 -0.07698848 0.04083943 -0.02142152 0.02280098 -0.02169418 0.04131764 0.08829504 0.1736919 -0.2742327 -0.008586626 0.06392275 0.05612083 -0.01821186 -0.01638615 0.1223999 -0.1340095 -0.08830945 0.02465213 0.02389142 -0.003482227 0.1524977 -0.09385536 -0.165407 -0.05987523 0.01410647 -0.006720125 0.06727339 0.03354023 -0.1245097 0.08673455 0.01468678 -0.02383858 0.08681651 -0.08162713 -0.2746778 0.02803352 0.07427499 0.07844302 0.05318788 -0.202351 -0.03107361 -0.1202378 0.05399917 -0.03879543 0.09488353 -0.02659177 -0.07869044 0.2296633 -0.07435948 0.01217056 -0.138771 -0.01814574 -0.1097871 0.1082321 -0.02799783 -0.09471814 -0.1073048 0.06572726 0.02688077 0.008170303 -0.1787321 -0.003829065 0.1603728 0.01536532 -0.09042343 -0.08075776 -0.05410871 0.09963666 -0.0496545 -0.08380189 -0.1105027 0.07866103 -0.1390244 0.03861759 -0.05230838 -0.0462281 0.1175469 -0.1177717 -0.1949334 -0.1563571 0.05070981 -0.2551851 -0.002498842 -0.03103411 0.01002744 -0.1927157 -0.01803473 -0.1466605 0.05813589 -0.004504201 -0.02817783 0.1012066 0.0755405 0.04277149 0.1156887 0.1026052 -0.04547314 -0.08834964 -0.03638709 -0.1161375 -0.1043197 -0.03161626 -0.002069867 0.0243223 -0.1237885 -0.0132618 -0.1624903 0.1130462 0.1480033 -0.02331929 0.052679 0.0343419 -0.08491951 0.07296089 -0.003865963 0.05248459 -0.04850965 0.06492498 -0.04591034 -0.1415058 -0.0197873 0.01981861 0.02851315 0.1903277 0.04910716 0.05822758 -0.0491615 -0.0468346 -0.0003790915 -0.01784365 -0.002345265 0.09793921 0.2460278 0.1707835 -0.1139549 -0.1420048 0.001495953 -0.08981174 -0.0371932 -0.07257424 -0.1150426 -0.1221122 -0.005933283 0.02494163 -0.08997322 -0.08705176 -0.05211761 -0.004493483 -0.00385403 0.03793697 0.04862878 0.02992006 0.1479405 -0.02500986 -0.08815008 0.07724135 -0.03313791 0.08582488 -0.08242722 -0.02252706 -0.0383425 -0.1038028 -0.0353493 -0.1397283 0.298434 -0.1019692 -0.1777577 -0.09470188 -0.09311544 0.09845909 -0.01796964 0.121885 0.05433154 -0.03239699 0.093803 0.0167555 -0.1037361 -0.09765252 0.02097378 0.2914459 0.003254462 0.1271061 -0.01316663 -0.02020738 0.1631129 0.1232035 -0.07461095 0.008677551 0.04003989 0.07155305 -0.04463558 -0.04321678 -0.05491899 0.02321468 0.08491687 -0.2121482 -0.06147363 0.04665088 0.07172119 0.04890484 -0.2076695 -0.1232814 0.04178649 -0.01900551 -0.0009716791 -0.02331831 0.005163072 0.1191463 0.09644835 0.1424095 -0.05029672 0.1157773 0.0921087 0.01664457 0.05751461 -0.01131369 -0.006890088 -0.07090375 0.1094532 -0.2178308 0.01490366 0.01750743 0.01519872 0.09726682 0.04309705 0.2018063 -0.1908554 0.04398793 -0.1383393 -0.07773603 -0.06467019 -0.07455097 -0.03523964 -0.02870036 0.1194317 0.01024213 0.06990039 -0.04156018 -0.167524 -0.0878445 -0.05927114 -0.1744438 0.06518202 0.08107552 0.1035312 0.04084028 -0.0730722 -0.07113013 -0.002881881 0.006772175 0.09427949 0.2059159 0.05837762 0.1793945 -0.1027985 -0.004901958 -0.08081681 -0.2013222 -0.1026863 0.08213834 -0.06187401 -0.01996475 -0.03740591 -0.02964553 0.1021416 0.07397901 -0.01027529 -0.07986222 0.1282854 0.07017712 0.1161722 0.03317302 0.03495625 0.001319472 -0.05746993 0.128307 -0.03776607 -0.1778792 0.01497054 -0.002545626 -0.1293958 0.2145331 0.02601515 0.09644771 0.0009561534 0.03564147 -0.1357981 0.1600407 0.1603358 -0.1030237 -0.09608093 0.1303374 0.03253752 -0.08964078 0.01295461 0.03478766 0.09311572 -0.08274458 -0.03637988 -0.06662668 -0.03098731 -0.02140904 0.02585674 0.06727453 -0.03939265 0.02076972 -0.1440918 0.1570497 -0.07374017 0.07012645 -0.07439971 -0.1361886 -0.1591143 0.06921691 0.180455 0.1802661 -0.008226846 0.04382655 -0.1013664 -0.158299 0.1235529 0.03343148 0.08452769 -0.1147566 -0.01176949 0.07301743 0.2260003 0.0175073 0.1179525 -0.1988113 0.02449428 0.07548318 0.3365662 -0.08166326 -0.01292851 -0.1957138 0.01518625 -0.05797369 0.05320658 0.007503825 0.008665189 -0.1105627 0.05843328 -0.02906593 0.05986737 0.002240828 -0.2014039 -0.01195177 -0.01731672 0.03378931 0.01212047 0.05011228 0.06748579 -0.1568475 0.02770125 -0.07731652 0.04004266 -0.006307715 0.01981078 0.1329775 0.02479411 0.07946075 -0.1319011 0.03797743 0.07465989 -0.01121857 0.3184012 0.01098607 -0.02131291 0.1997875 0.05447797 0.08454097 -0.03258973 0.05703492 -0.05751374 -0.06201104 -0.001167953 0.108403 0.01270722 -0.07727164 -0.02877874 0.09035872 0.02474641 
  -0.1109255 -0.003028681 -0.1320275 0.04977877 -0.1727075 0.06567431 0.1372821 0.1070889 0.1407362 0.06826244 0.024707 -0.06827329 -0.1140595 -0.01446986 -0.07302777 0.06869864 0.06707182 0.04885717 -0.009664882 -0.1841033 -0.08037774 0.1037453 0.1319401 -0.03502779 -0.009468981 0.09901444 0.2129336 -0.1147054 -0.1247132 -0.0222801 -0.03596746 -0.08551166 0.004341073 0.05525578 -0.007282392 0.01031276 0.003360634 -0.1917648 0.1299588 0.05852465 -0.1231496 -0.04552415 -0.02001678 0.01333037 0.1386819 0.009319773 -0.1002233 -0.007047462 -0.075905 0.03140294 0.1422556 -0.1373561 -0.1457442 -0.2880255 0.03114141 0.06606657 0.02183799 -0.1835789 0.08982141 0.04421704 -0.03087506 -0.2379678 0.1101134 0.05025 0.09021961 0.01078184 -0.2025459 -0.1350878 -0.06219412 0.01183695 -0.1249385 -0.04257295 0.09968896 0.03777993 -0.06002263 -0.01326967 0.1112722 -0.1602342 0.04989434 0.04014713 -0.1879039 -0.03144331 -0.03007977 -0.02246874 -0.1105098 0.216288 0.05548963 -0.1502815 0.01584131 -0.1214805 -0.02102992 0.1169791 -0.118095 0.1001362 0.07521102 0.1584592 0.03415129 -0.03146119 0.1188318 0.005853963 0.08865131 -0.1248838 -0.0436926 -0.1832211 -0.07426976 -0.1674671 -0.03925196 0.05319159 0.1876228 0.0508785 -0.1219191 -0.03785014 0.1012343 0.115044 -0.03319214 -0.05389241 0.09896035 -0.08362742 -0.1444749 0.04799017 0.1895529 0.1379103 -0.01263421 -0.2013012 -0.04371587 0.1345258 0.08593807 0.03497224 0.264587 0.1900541 0.1012132 0.09284026 0.05983086 -0.122446 0.133081 -0.04837515 -0.2269976 -0.1587691 -0.1690376 0.006715722 -0.01144388 -0.247727 -0.07709084 -0.03169482 0.01311098 0.06453779 0.01704783 0.1981865 -0.05564752 0.07546657 -0.1226022 -0.2073629 -0.2200092 -0.2220376 0.01136637 -0.01127202 -0.1857803 -0.1805263 0.1262637 0.06970803 0.04674618 -0.1877911 0.005603414 -0.1096301 0.05911911 0.1074736 -0.1140225 -0.1221561 -0.2537748 0.03465199 -0.1075988 -0.01892833 0.03454679 0.09077561 0.04417771 -0.1901817 0.03738308 0.1573816 -0.04387715 0.07241707 0.07578781 0.04812033 -0.0404562 -0.0210698 -0.07768911 -0.002530834 -0.05172669 0.006887616 0.04401678 -0.2047379 0.1168915 -0.02312788 0.09226156 -0.01155045 0.03606842 -0.09732659 -0.2024492 0.07554616 0.04391213 -0.05289425 -0.04717718 -0.026291 0.04815878 -0.02187839 -0.004457616 0.04047607 -0.09147748 0.02346097 0.07618115 -0.09915981 0.1257096 0.0216218 -0.05087157 -0.1878202 -0.07269523 0.1407097 0.01526848 0.01193103 -0.02782584 0.2351074 -0.0176011 -0.108026 -0.09286193 0.2047662 -0.07794699 -0.09844102 -0.06749028 -0.08409686 -0.005249992 -0.1295539 -0.1049668 -0.1530682 -0.09800037 -0.1780875 -0.002645822 0.08685391 -0.05187583 0.01231382 -0.1705265 0.04560281 0.09814723 0.1644388 0.1203228 -0.0498691 -0.005900124 -0.072126 0.1960161 -0.02702919 0.1057035 -0.01104317 -0.1356735 0.01857822 -0.03972773 -0.05148989 -0.01247122 0.205594 -0.1097647 0.2212269 -0.07509155 -0.1610089 0.1368451 -0.03712618 0.006035905 -0.1889393 -0.02780518 0.1143328 0.04252741 0.1277363 0.04027176 0.06364518 -0.100747 0.1807069 0.01201763 -0.007417782 0.01038572 0.02433136 0.1714237 0.0615586 0.06253773 -0.07409588 0.02021148 0.09539064 0.08244915 0.1711915 -0.03703111 -0.122801 -0.05764085 -0.02523638 -0.06593949 -0.1119146 0.01465073 0.04638901 -0.1337471 0.02777094 -0.1061521 -0.03766428 -0.01957365 0.05482911 0.05312705 0.008312408 -0.1700004 0.09239119 0.1908547 0.03044666 0.09545881 0.04543117 -0.09332057 -0.1953707 0.02847273 -0.1292302 0.09288511 0.1818362 0.1292852 -0.2572316 -0.00753489 0.04681777 -0.04991066 0.04750483 -0.1000716 0.09071123 0.03896524 -0.0565265 0.03986019 -0.2067859 -0.1396461 0.02833918 0.1578693 -0.07936977 -0.007041475 -0.0002551664 0.03218845 0.09892603 0.05442568 -0.03482801 -0.06720489 -0.0266763 0.05548044 0.004767913 0.2080617 -0.05459521 -0.1315547 -0.00204264 0.08133158 -0.01657004 0.00419583 -0.05676794 0.004509599 0.05538042 -0.01283313 0.05529214 -0.06358891 -0.1116907 -0.0885761 -0.07804732 0.003271766 0.04745487 0.07038041 0.04462492 0.04320259 -0.1024251 0.07726807 0.2254863 -0.132259 -0.1463362 0.05339941 -0.08466557 0.1098649 0.004807783 -0.1096353 0.05454943 0.04036015 -0.06517176 -0.0743178 0.03800464 0.01840116 0.0209133 -0.0700555 -0.06617849 -0.05812602 -0.05373392 0.07089422 0.07326812 -0.01280287 -0.1188905 -0.04098271 0.01395216 0.06060087 -0.1041757 0.1219813 -0.007387036 0.007090834 0.05894349 0.09233049 0.1261228 -0.002244757 0.08389135 0.09099691 -0.1779812 0.07995357 0.04205126 0.07028285 0.0367435 0.01719594 0.07156742 0.009409892 0.02773205 0.01468077 0.0921866 0.06531586 0.009516308 -0.04236349 -0.04539895 0.09009067 0.09165715 0.1607635 0.003996439 0.06904815 -0.0002515426 -0.01393597 -0.03412301 -0.02406934 0.1472505 0.06659944 0.01242909 0.05516976 -0.01060277 -0.03231091 0.09105136 0.03201987 0.3014216 0.1907511 0.02351652 -0.0175367 0.03234933 0.04791815 -0.1777528 -0.1186778 -0.09918649 -0.09327195 0.0930177 
  0.009614925 -0.08247772 -0.04947723 -0.2272953 0.1032824 -0.1206831 -0.04005366 -0.04278016 0.06263243 -0.0259608 -0.05168191 -0.08461238 0.02722956 -0.1749949 -0.1342402 -0.008143547 -0.03034165 -0.0550746 0.01287583 -0.06537858 -0.006669319 0.0374972 -0.06361718 -0.1239425 0.1152247 -0.04761275 -0.09869545 0.06674635 -0.05000709 -0.1636369 0.09090378 -0.02342959 0.1799279 -0.02949379 0.1429535 -0.08964069 0.03018886 0.1491376 -0.04684702 -0.02397508 -0.1114754 -0.07911062 0.09240037 0.09533988 -0.1521445 0.05065427 0.08437453 -0.09556954 0.06431689 0.03724044 0.1781533 -0.03673582 0.1112937 0.03885673 -0.0935556 0.083051 -0.01773155 -0.03163724 -0.01240467 0.1727924 0.0590809 0.08053535 0.04565478 0.1070672 -0.06507764 -0.09357684 0.02469658 -0.02672134 0.1714295 -0.246956 0.01629953 -0.006405795 0.1327858 0.1958672 -0.01060892 -0.2182097 0.02028834 0.05222129 0.1733797 -0.207895 -0.1100625 0.08221842 -0.1249063 -0.04437518 -0.08828744 0.06551757 -0.03452674 -0.009516331 -0.04405883 -0.03193666 0.1485985 -0.002436544 -0.07548772 0.1161457 -0.1273884 0.07465959 0.02790585 0.02429186 -0.03503025 0.08243721 -0.05360465 -0.1151842 -0.1003176 0.07770313 -0.06051802 -0.087481 -0.1306488 -0.05836746 -0.1065224 -0.01209917 -0.03322884 0.07569911 0.06184638 -0.1203369 -0.09878203 -0.04368766 0.04273514 0.1577158 -0.0327856 0.2682888 -0.145246 -0.0745116 -0.06282176 -0.1051075 -0.0627206 -0.07536491 -0.03565427 -0.1154117 0.03115911 -0.00328247 0.05469051 0.03779024 0.05421008 -0.1648534 -0.02554923 -0.1262081 0.05789602 0.03063001 0.003933576 0.007320597 -0.01624915 0.03538186 -0.02213089 -0.07564867 -0.2382884 -0.1841143 0.03300318 -0.05308989 -0.0718809 -0.1462627 0.1410143 0.03647575 0.05580999 0.1326753 -0.004364767 0.04284588 -0.04173711 -0.198009 -0.05415126 -0.04296515 0.2246978 -0.277445 -0.02147411 0.1008531 0.05773259 -0.07738654 0.1630986 -0.04110797 0.05001977 -0.06894585 0.1673749 0.1392865 0.01239567 0.1113027 -0.1417392 -0.1197715 -0.04143875 0.02387039 -0.1391683 0.02185353 -0.08340871 -0.06685108 -0.08255334 0.111781 -0.196377 0.04321161 -0.03329711 0.04026778 -0.07911766 -0.07237504 -0.04223935 -0.0004042383 0.06741822 0.03027938 -0.104052 0.01615544 -0.2887129 -0.03966618 -0.03259663 0.04739231 0.3080009 -0.1159291 0.142986 0.134908 0.03015746 0.06701504 0.005879375 0.06320085 -0.03108813 0.02063551 0.03486464 0.1018472 0.1807553 0.1341325 0.0577136 -0.0850542 -0.02317047 -0.111913 0.04277462 -0.04621023 -0.02320395 -0.04749681 -0.08687191 0.007722919 0.05476786 -0.0444958 -0.1260899 0.00370638 0.07020127 0.07777054 0.02902802 -0.0595061 -0.06723076 -0.02737749 0.009237495 0.1266415 0.04579309 0.05063233 0.02358291 -0.07267774 0.1810381 0.05036631 0.06836594 0.07082746 0.06889316 0.03467479 -0.03105702 -0.04132505 0.01931921 0.07940141 -0.02659162 0.03471344 -0.03865243 0.1538734 0.0957191 0.05188778 -0.05073332 -0.07106581 0.1147214 -0.01668807 -0.02703751 0.02632123 -0.08601744 -0.2417999 -0.02163753 -0.04354011 -0.1067466 -0.009903293 0.01986787 0.04900815 0.07057902 0.01671425 0.09742585 -0.0137634 -0.187868 0.02204851 -0.02056852 0.01093953 0.09666444 -0.1136172 0.2771882 0.01519035 -0.05876741 0.185236 -0.04943388 0.1920671 0.03333638 -0.1558763 0.06257218 -0.01558006 -0.04413845 0.08456121 0.02550374 0.1545809 0.03013447 0.09233253 0.07557128 0.1003622 -0.06271205 -0.179833 -0.005659945 -0.09348674 -0.07758611 -0.2364998 0.08309992 0.06726047 0.01466715 -0.1556368 -0.07759374 0.02220525 0.1532091 0.1499589 -0.1403756 0.2990423 0.173434 0.09479251 0.05738756 -0.08229459 0.003725836 0.1908645 0.3348746 0.0832931 0.15845 0.07919163 0.1135827 -0.04470841 0.05111874 0.06532693 -0.1083485 -0.0525376 0.05147744 0.1117758 0.124903 -0.03924014 0.0169333 -0.04781672 0.05616833 0.1981863 0.0008090211 -0.04548942 0.06289881 0.007356665 0.002135496 0.144252 0.09282157 0.01149699 0.1414896 0.08412108 0.08965537 0.02250216 -0.006539338 0.04381396 0.2442365 0.08292769 -0.04672151 0.08643979 -0.1514621 0.0315767 -0.08885444 0.01558283 0.2965204 -0.04979043 0.04949535 0.08499834 0.0152081 -0.02816182 -0.04015953 0.1214033 -0.04302269 -0.000195248 0.05741296 -0.0980229 -0.01626566 0.1290302 0.1713452 -0.07241526 -0.08212414 0.02555047 -0.005411335 0.04084865 -0.004378573 -0.1022118 -0.04775434 -0.1551472 8.06922e-05 -0.1011482 -0.03896709 0.1026896 -0.1489585 -0.2689829 -0.07875936 0.04228504 0.03303069 0.04112901 0.09106545 0.1041053 0.07079984 0.07152928 0.1334079 0.1336532 0.5123588 0.006927645 0.2060967 0.1968583 0.02028474 -0.01199758 -0.06008016 -0.1885874 -0.0006936732 -0.1668766 -0.01464674 0.1255052 0.123261 0.005245093 -0.02114259 0.1485679 0.2152836 0.193217 0.09844778 0.0701451 0.01202556 0.03246116 0.00138271 -0.02297119 -0.05890791 -0.02260775 -0.1612907 -0.01013097 -0.06312809 -0.2316173 -0.2116417 -0.02750671 -0.009520267 -0.116254 -0.02102675 -0.1447395 0.01953027 -0.01064375 -0.0301015 -0.05054859 
  -0.01841679 0.09469031 0.06590632 -0.03259204 -0.05524365 -0.1046329 0.1259994 0.02751555 -0.07698651 0.1130169 0.02352897 0.04523934 -0.005599448 -0.04625944 0.04976158 0.01545496 0.1213928 -0.1419568 -0.08380284 -0.1457475 0.01871861 -0.1803012 -0.005140452 -0.1516736 -0.1368989 0.06596418 0.1478018 -0.08801664 0.1402937 0.02650141 -0.2943476 -0.2504747 0.004829252 0.03920648 -0.1695821 -0.127905 0.1878281 0.0816943 0.08318803 -0.1862691 0.06481811 -0.01252944 -0.05921825 -0.02717034 0.05749651 -0.1405544 -0.1088096 0.07026771 0.04552237 -0.1913248 0.1520779 0.001290842 0.03923503 0.05581029 0.01865666 0.02165678 -0.01338631 -0.04790897 -0.0399719 0.2409686 -0.1624941 0.1247147 0.2117759 -0.05119157 -0.02051457 0.07967079 0.00433453 -0.09546401 0.1329098 -0.08566865 -0.02251662 0.1029082 0.08265921 0.09684281 -0.07134836 -0.006739652 0.1789678 0.08360359 -0.1642957 -0.0338902 0.07320254 -0.157547 -0.01151513 -0.113273 -0.04690461 -0.07332757 0.03078816 0.1074934 -0.01566747 -0.01981768 0.03214189 0.1041197 -0.01812507 0.02669439 0.01243421 -0.09702132 -0.01390257 -0.0136136 -0.1156581 0.1672163 0.1654057 0.0267783 -0.1538211 -0.0799353 0.02460146 -0.1211787 0.06743595 -0.03274354 0.2047169 0.06168175 -0.0589837 -0.09201321 -0.01052878 0.04931732 -0.1821361 -0.06816217 0.1799372 0.09810425 0.05709759 0.02914298 0.03504324 -0.01284026 -0.004932339 -0.07272299 -0.1598097 0.01800384 0.07757126 -0.07781337 0.0001171975 0.03782477 0.1377771 0.1217721 -0.2038333 -0.08187671 0.09898878 -0.05326999 0.02731382 0.02988208 0.03498601 -0.04337 -0.04510978 0.07279233 0.03982796 -0.1019723 -0.0602175 0.1154674 0.1906614 -0.01925699 -0.02174019 0.169802 -0.04518784 0.03022915 0.001164965 0.002397698 0.003923433 0.1631068 0.07199118 0.06100632 -0.1360559 -0.248587 0.08802851 0.09366606 -0.1744796 0.01583478 -0.07193932 0.005379103 -0.1016111 -0.1378329 0.08647123 -0.08284052 0.1633652 0.02378233 -0.07992375 -0.02229685 -0.05081284 -0.02794719 -0.06524692 -0.0773112 0.02063935 0.05771045 0.01388526 -0.02541555 0.03171176 -0.09123281 -0.2298367 0.01278747 0.03585662 -0.02301279 -0.03336765 -0.05181379 -0.2687629 -0.2322048 -0.1631708 0.1878724 -0.03952573 -0.005787851 0.0770717 -0.2304697 -0.1491703 -0.1776839 -0.0171678 -0.02588209 -0.0106189 0.03681169 -0.1232274 0.09330929 -0.05284065 0.04734853 0.1976006 0.1103199 -0.05091577 0.03861001 -0.07546876 0.05146319 -0.1162558 -0.08718985 -0.04701083 -0.09164726 0.07135925 0.293405 -0.02162026 0.09061506 -0.02022823 -0.2322121 -0.01087581 0.1469613 0.13241 0.0296288 0.07970762 0.1680422 -0.09347981 0.07135472 -0.2121044 0.1168128 -0.02251188 -0.02967179 0.1761787 0.1700142 -0.05039484 -0.1896984 0.07738546 0.1051986 0.02635797 0.1754529 -0.01027685 -0.1694734 0.03663417 0.1252803 0.01094882 -0.006575873 0.1071063 -0.05881649 -0.105198 -0.0962563 -0.08339745 0.04470456 0.0109144 0.1517056 -0.145809 0.189903 -0.07508568 0.03355905 0.1518172 -0.06223265 0.02755603 0.1421343 0.1368834 -0.1184388 -0.04056728 0.02313954 -0.06296923 -0.1723669 -0.2892672 0.08466564 0.006117791 0.004015497 -0.1146449 0.04535294 -0.1884356 -0.1920857 -0.01515843 0.09261712 0.0393122 0.0969384 -0.1554755 0.2161873 -0.1455846 0.05247769 0.1775385 0.1171373 -0.01183024 0.07013867 -0.04974134 -0.200084 0.01904949 -0.03157923 0.07414488 -0.1358976 0.2110529 0.09955402 -0.1070288 0.1026381 -0.08390103 0.1934889 -0.09483281 -0.1621734 0.0896734 0.02833031 -0.1444785 0.04821623 -0.1146348 -0.1339399 -0.002615467 -0.2013678 -0.1381597 0.08525201 0.06185047 0.05541072 0.01545941 -0.08597735 0.1507419 0.1148711 0.01649492 0.09724448 -0.004019484 -0.1378552 0.08645786 0.1470245 0.008552948 -0.04880788 0.01111909 -0.08283491 0.1021978 -0.1205367 -0.09966436 -0.06019331 0.04987257 0.08413383 -0.04647314 0.0172189 0.02812689 -0.03974053 -0.04565742 0.09590212 0.04198762 -0.06563521 -0.01505254 -0.2357194 -0.0482162 0.03715249 -0.05659513 0.1558156 -0.2758563 -0.01609932 0.0521537 -0.1369016 0.06630821 0.09034668 -0.03472749 0.08248132 -0.04290954 0.04729902 -0.1932534 0.1408036 0.1070507 0.06531128 0.03711608 0.01732024 0.1056984 0.1195544 -0.0008675212 0.06475259 -0.1203673 -0.05455953 0.08755875 0.04261706 0.1587994 -0.1105687 0.09325247 -0.1493242 0.08662234 -0.1301387 0.02676225 0.05353296 -0.2544841 0.08051942 -0.1472571 -0.1033906 -0.01174537 -0.1261261 -0.01679089 -0.06215422 -0.01191761 0.07918686 -0.01766431 0.04155315 0.249525 -0.04083402 -0.2323409 -0.0431466 -0.08574686 0.07543191 0.007777184 0.08514579 0.04088543 -0.1003963 -0.04571634 -0.05947397 0.05728082 0.07835402 0.0883205 -0.02311935 -0.1527751 -0.02047241 -0.01949338 0.1136916 -0.02269839 0.05897129 0.05696561 -0.002809118 -0.01014035 -0.208916 -0.009024611 0.03337566 -0.06785696 0.2097215 0.1417448 -0.09631769 0.071251 -9.375928e-05 0.01436066 -0.0399542 -0.1495344 -0.003480299 0.0394544 -0.01486037 0.3017758 0.01136249 -0.1739419 -0.1192318 
  -0.1397902 -0.07659958 0.1566039 -0.04138706 0.1193937 -0.04874077 0.101056 -0.1233379 0.08737915 0.04881444 0.1007522 0.1985109 0.01245022 0.001337393 -0.1947706 -0.1199858 -0.1862946 -0.1243682 0.07274342 0.106192 0.08896516 0.1816345 -0.002693991 -0.1374603 0.04683286 0.03105219 0.06932002 0.1648405 -0.03308116 -0.1351614 0.04841938 -0.04281305 -0.05342529 -0.02304428 -0.03228978 0.004839127 -0.2200871 0.1204463 -0.2394366 -0.09567814 -0.1275527 0.03520413 -0.01693219 0.01361688 0.0168227 -0.02218847 -0.01496077 -0.08352581 -0.06615619 0.08600318 0.1950439 0.0619534 -0.008544782 0.01811757 -0.0376473 -0.1289947 -0.105476 0.05473312 0.1266185 0.1344212 0.08608943 0.00200572 -0.05312508 -0.05774742 0.009865919 0.07833958 0.02076736 -0.1138815 0.006869182 0.03699132 0.1706812 0.03510794 0.04454126 0.1542289 0.04645514 -0.2037138 -0.09662517 -0.0259799 0.1799192 -0.04232885 -0.09499314 -0.04193342 0.2310961 0.1809706 -0.1438909 -0.03787394 0.05548539 0.07956762 0.1059154 0.02132521 0.05797572 -0.03333826 -0.009716845 -0.07080451 -0.01075585 0.07660319 0.03761722 0.09723822 -0.1193065 -0.1900682 0.1121838 0.006822593 -0.01404768 0.003243548 -0.03537349 0.05225612 -0.03156845 -0.03587478 -0.02647396 0.07123652 -0.06136281 0.063734 0.01299405 0.1475554 -0.04911533 0.1031261 -0.2159352 0.03199425 0.02680587 0.04545164 -0.1060001 0.009486771 -0.05244238 0.1141014 -0.08320765 0.133443 0.1146835 0.00329408 -0.02102041 -0.08347562 0.02188267 0.1060336 -0.07436954 -0.03225037 -0.09300464 0.1854025 0.05154897 0.02103283 0.04865017 0.01912206 0.03906413 -0.01662351 0.02685411 -0.04599551 -0.04299754 -0.0413334 -0.1576648 -0.08229808 -0.1165043 -0.04426059 0.09384411 0.1617143 0.0640738 0.064043 -0.06959883 0.005949695 0.06381357 0.005156099 -0.05310876 0.1174043 0.1019399 0.008996929 -0.01407111 0.03698956 -0.0558455 0.1103528 -0.05808704 0.0408552 -0.07973199 0.1544259 -0.06107262 0.01896017 -0.08633118 0.001389407 -0.04331132 -0.1334264 0.0317807 0.0475896 -0.02440472 -0.02009416 -0.001562356 0.06263914 -0.07674997 0.1243674 -0.2052983 -0.03173504 0.02330702 0.1005604 -0.09021716 0.04161667 -0.02151011 0.05729917 -0.03873498 0.006368494 0.1130282 -0.1281574 0.1530111 0.07291789 -0.024843 0.02609718 0.1165475 0.06258814 0.006544503 -0.03833237 0.07915591 -0.0259567 -0.1816871 0.06175876 -0.03174924 0.08023045 0.1160046 -0.07331995 -0.07287099 -0.245475 0.04509263 -0.01674629 0.2099708 0.1133469 -0.1112956 0.08452762 -0.1364705 -0.1317854 -0.03726797 0.01081314 -0.1291491 -0.06793135 0.04894364 -0.08503104 0.003411829 -0.2924086 -0.07789155 0.02669543 -0.02277981 0.05328213 0.2682024 -0.04413008 0.1043478 -0.03197582 0.05303801 0.2430325 0.03661309 0.1609387 -0.0005154368 0.1027299 -0.08088157 0.09806564 -0.03642637 0.1162766 -0.1456494 0.04558394 -0.120284 -0.08797059 -0.01008828 -0.1274252 0.06400919 0.08378875 0.04158419 0.06844781 -0.05446371 -0.09181537 0.06632457 0.08414543 -0.08835706 -0.1704364 0.03630748 0.03353899 0.06492414 -0.02977359 -0.1119575 -0.02554835 -0.09057423 -0.2026158 0.1069474 0.02323519 0.0335947 0.1595826 -0.05742599 0.1950041 0.06773741 -0.04148944 -0.001181963 0.08801786 -0.001833795 -0.05784369 -0.0008245641 -0.1576013 0.03777773 -0.1526751 0.001027809 -0.08392477 -0.03018182 -0.03974166 -0.1733291 -0.02425854 0.02285556 0.1443912 0.1862209 -0.05251889 0.02717415 -0.09527432 -0.01964647 -0.02778498 0.002843119 -0.1147164 -0.08051696 -0.005179074 0.03987095 0.02255286 -0.06282931 -0.1706088 0.1386645 0.10925 -0.04801733 0.002560647 0.1535421 0.07342264 0.05283793 0.0167916 0.2888828 0.2473511 0.02482122 0.02769332 0.01205129 -0.08007129 0.1175741 0.0009693839 -0.1423343 -0.07343611 -0.193519 -0.02931413 -0.07146577 -0.1209925 -0.1806794 -0.1515272 0.04473334 0.1298172 -0.01629218 0.08715465 -0.1273768 0.008707347 -0.03434331 -0.1041263 -0.08856237 -0.04604612 0.001328955 -0.1066 0.07247231 0.06980477 0.04529587 -0.01793028 -0.2091734 0.1712439 0.09420041 0.132202 0.06023931 -0.08384271 -0.09960762 -0.0533841 0.0948742 0.1990855 0.06474505 -0.1056927 -0.06419282 -0.1669705 -0.1945489 -0.2352542 -0.1098677 -0.1274327 -0.1537132 -0.07364422 -0.006681089 -0.1551591 0.001476961 -0.1551123 -0.01896552 0.03292593 0.01670196 0.1709689 -0.09723292 -0.05689816 -0.03242455 0.1522381 0.1163093 -0.08081152 0.02866184 -0.02836628 0.04646217 -0.129245 0.03847903 -0.01404902 0.05646871 -0.02771445 0.1773947 0.220623 0.1433562 -0.04905805 -0.04165032 -0.103897 0.1208974 0.005535132 -0.07482678 -0.1173925 -0.09635036 -0.006873489 -0.03474694 -0.1317631 -0.1413833 -0.1001704 0.03658953 0.1300316 0.03260435 0.04423437 0.1361282 0.1221862 0.2599254 0.1615894 0.07910773 0.2213412 0.1280115 0.152223 0.1600461 0.07030349 0.1745998 0.06657178 0.1026879 -0.152418 0.08551779 0.04341793 -0.1433614 -0.125831 -0.04654475 0.08366706 0.1092026 0.08640213 0.1318139 -0.06131938 -0.189342 -0.1647405 -0.1813366 -0.09261344 
  -0.08082535 0.118371 -0.06540398 -0.04504362 -0.2573185 -0.01480364 -0.1298947 -0.1614462 -0.05635913 0.03519237 -0.08777927 0.06564309 0.1196485 0.0749386 0.07649432 -0.1182901 0.03129174 0.1331916 0.2899486 0.1021416 0.1111922 -0.006433968 0.1236207 0.03985573 -0.09766626 0.134883 -0.02193939 -0.1994939 -0.09816881 0.085098 0.1052078 0.09783302 -0.03174019 -0.164447 0.1203392 0.04544653 -0.05671833 0.00646029 0.05390341 0.08995413 -0.01155725 6.322844e-05 0.1042086 0.1780055 0.03695052 0.1854586 -0.08997796 0.009916158 0.05642584 -0.02954046 -0.3609095 0.05866384 0.001445104 -0.125129 -0.07617601 0.03057768 0.04161721 0.002840823 0.1155783 0.1575189 -0.07242715 -0.007030899 0.1281274 0.04286656 -0.1149329 0.0114589 -0.01809545 0.1181136 0.1644491 0.05673943 -0.09225164 -0.1987103 0.03665792 0.08157473 0.01966813 -0.07295775 0.05946101 0.1100397 0.1291742 -0.2088872 -0.0458396 -0.03025183 -0.08694014 -0.187885 0.008576169 0.1419458 -0.0990226 -0.1174688 -0.007777594 0.03763155 -0.1761034 -0.04327708 0.002981729 0.08791338 -0.08546189 0.0834108 0.2650833 -0.05959956 -0.006489191 -0.009299444 -0.06169515 0.01940679 0.08598649 0.05677008 -0.08218235 0.01134421 -0.004231559 0.02952632 -0.09737307 0.04497102 0.09194438 0.09249577 0.01395617 -0.08888453 0.01792571 -0.1573979 -0.09772608 0.06900833 -0.09815759 -0.0311237 -0.07487262 -0.09684978 -0.1504238 0.07217482 0.07456686 -0.02942507 -0.09911458 0.05256788 0.1485334 0.07819097 -0.2869364 -0.05489033 0.05835561 -0.07118809 0.003123032 0.2225807 -0.08598597 0.06209703 -0.02433332 0.0528845 -0.07774341 -0.07353248 -0.2141374 -0.1116128 0.0952147 -0.1284187 0.1193153 -0.154167 0.1469513 -0.02336168 0.0533343 0.06041445 0.02736788 -0.03435686 -0.02194915 -0.075966 -0.1626274 0.03149666 -0.03982353 -0.008009898 0.1453774 -0.02422288 -0.06514952 0.215056 0.08184528 0.0990528 -0.1002462 0.1797259 0.1615294 -0.1265617 -0.1389787 0.08489102 0.06448635 0.1585017 -0.08544047 0.2154669 -0.008030575 -0.08397634 -0.05681855 0.02123646 0.07786649 0.008717006 0.1013866 0.03708124 0.02612754 0.03046225 0.01234219 0.0793412 -0.1368917 0.0325546 0.1593814 0.0008945853 -0.1015011 0.1379279 -0.02043001 -0.0050544 0.03610412 0.07194372 0.02961304 0.03448936 0.06995612 0.03241313 -0.1961216 0.02288803 0.2448696 -0.04709308 -0.09971278 -0.08623648 -0.1732947 -0.06553134 -0.1984161 0.2487447 0.1810044 -0.006194311 0.0003869417 0.06611577 0.01268408 0.08675585 -0.01045488 0.06519572 0.002817385 -0.1506141 -0.08911142 -0.06598901 0.1990791 -0.07424843 0.1011363 0.06711829 0.008231497 0.1934216 -0.2762633 0.004770766 -0.07768136 -0.03453814 -0.125828 0.1033556 0.04883424 -0.05828526 0.007330325 -0.1391835 0.076451 0.05755953 0.1122831 0.02090931 0.2602266 0.08649676 -0.05218128 0.03339697 0.1059522 -0.01855396 -0.162617 0.1637305 0.04729819 -0.1100282 -0.08685211 0.04894888 -0.03161467 0.1575131 0.03681081 -0.1468036 -0.1674818 -0.02195418 -0.007774301 -0.1315184 0.1009045 0.05523051 0.1431065 -0.1159645 -0.04448543 -0.07820497 0.09654288 0.09794076 -0.0107426 0.01384479 0.02359328 0.01326967 -0.0630098 -0.01282766 0.1437098 0.1157788 0.07065933 -0.01708721 0.1828956 0.07576268 0.1202378 0.08161955 -0.05402397 0.1180051 0.02601335 -0.2022905 0.03733529 -0.0380163 -0.02942451 0.1880925 0.02577527 -0.04044616 -0.08755849 -0.02454891 -0.0868219 0.08224822 -0.1014298 -0.01014421 0.04732346 0.02831451 -0.02210007 -0.05688867 0.1557392 0.06384137 0.03818462 0.01380022 -0.2241837 -0.02653941 -0.1627647 -0.004464956 0.01240448 -0.01263374 0.1212254 -0.04200129 0.03490032 0.03592329 -0.1003653 -0.1109404 -0.04088603 0.04132399 0.06561773 0.01646179 0.009461936 0.1842172 0.1462819 -0.1226776 -0.04885971 0.007345525 0.1396414 -0.01674587 -0.005034813 0.1518612 0.09124482 -0.1119312 0.08829167 -0.09726061 0.03471991 0.03901241 0.1084145 0.01473359 -0.1374109 0.1248657 -0.1296425 0.02812352 -0.001398913 -0.3381575 -0.1138117 -0.02996848 0.09466502 -0.06673469 -0.06015182 0.1812385 -0.06232099 0.08822642 -0.06295578 0.02149649 0.1044846 -0.04423145 -0.0005224238 -0.07174348 -0.02099297 0.01438733 -0.05585262 0.219616 0.1873285 0.04006077 -0.07498655 0.05883373 -0.07792696 0.2127133 0.09831395 -0.03471032 0.08035072 0.1242701 -0.1931587 -0.1950656 0.008117893 -0.1540912 -0.05808816 -0.06032283 0.02060977 0.05706285 -0.04100572 0.06440256 0.0124573 -0.1878662 0.208727 0.1007915 -0.0008689277 0.2344616 0.01561065 -0.007200871 0.1489058 0.03617915 0.0220808 -0.07855362 0.04091433 -0.02388539 -0.02703111 0.1515181 -0.03941886 0.01051023 0.007063585 -0.2024064 0.06185586 -0.1832124 0.04938079 -0.05694246 -0.072319 -0.1574016 0.05199346 0.08947725 0.06580642 0.135299 -0.05332333 -0.2738008 -0.07487877 0.07589433 -0.1416527 -0.1373219 0.06247545 -0.02079679 -0.01130851 -0.161683 -0.02418912 -0.0002241651 0.01676654 0.006494934 -0.01055788 0.01610684 0.02779726 0.04974676 -0.00960107 0.1748457 -0.06695232 -0.09494428 
  -0.06589846 0.0007918627 -0.04012372 -0.03661205 -0.01091214 0.1595912 0.1121719 -0.008345337 -0.111402 0.1108073 -0.1403599 0.1323735 -0.1445257 -0.003626771 -0.1460168 0.1145851 -0.1914232 0.01397549 0.1316115 -0.01932709 0.167432 0.1370673 -0.165809 -0.1190516 -0.149884 -0.1167725 0.1580426 -0.1176571 -0.09610596 -0.01184341 0.04264789 0.1099991 -0.118688 -0.1864404 0.09617241 0.2438946 -0.02341268 0.06244944 -0.01589002 0.03161718 0.05778197 0.05139299 0.03749554 -0.03607639 -0.08435491 -0.1782012 -0.07897651 0.1323774 -0.1826095 -0.1488426 -0.08284018 -0.05978679 -0.004947832 0.09908082 0.04086531 -0.1283432 0.07332706 0.01937485 0.1172475 0.004086036 0.08368236 0.1003397 -0.05587071 0.1514227 -0.03525972 -0.1236751 0.03714357 -0.004920946 0.2236162 -0.04364139 0.02157919 -0.07926219 -0.1114163 -0.1364288 -0.07661887 -0.1865006 -0.03488047 -0.07138167 0.01638345 0.05308324 -0.05022649 0.1167406 0.09864599 -0.07912869 0.001713719 0.1232937 0.06626181 0.0999973 0.06698669 -0.1343165 -0.1385167 0.04430675 0.002527754 -0.0580943 0.09857672 -0.05074182 -0.06077433 0.1002681 0.1090165 -0.05405235 0.0556471 0.1226392 0.03499247 -0.006595023 -0.05263965 -0.08764601 -0.02984467 0.02601358 0.07724996 0.01008857 0.139125 0.012385 0.1266411 0.04603171 -0.2107217 -0.06127725 0.09559404 0.007705939 0.03749943 0.0181667 -0.0754859 0.03353125 -0.06970537 0.08772356 0.03674481 0.01224364 0.1384089 -0.08791029 -0.1201206 -0.04009017 0.02108638 -0.002029751 -0.006681453 -0.09653226 -0.09582577 -0.04336937 0.06671324 -0.06260947 -0.07379241 0.07704506 0.05395738 0.03756814 -0.1272895 -0.1382922 0.04891263 -0.03990851 -0.0005352042 0.07961737 0.03482538 0.09804398 0.06290611 -0.01839794 -0.02511185 -0.07131762 -0.06886581 0.05601186 -0.07757942 0.03505266 0.1146028 0.140172 0.1549108 0.006177826 -0.046345 -0.08360671 0.07271358 0.03897699 0.03108791 -0.0683067 -0.0547699 0.1348208 -0.008584392 0.02321782 -0.1407421 -0.0373986 -0.04163587 0.05668347 0.1373252 0.01660377 0.02172165 0.1298645 0.2401361 0.0115927 -0.0107025 0.1375171 -0.2099922 0.01064587 -0.08081219 0.002979547 0.1769014 0.1250847 -0.1252785 -0.0448768 0.003103532 0.03925958 -0.4102105 0.02227655 0.09250896 -0.00851242 0.0230515 0.08669136 -0.05046728 0.04412498 -0.07831854 -0.08003338 0.02110359 0.05512683 0.1501902 0.1251758 -0.02821202 -0.02689357 -0.007910781 -0.01405728 -0.03919154 -0.02339274 -0.03448648 -0.09983686 -0.1240992 -0.0836195 0.2293765 -0.06307806 -0.04511921 0.1218275 0.1185339 0.01700835 0.08505446 0.05001352 -0.03567482 -0.1652805 0.11633 0.08404792 0.07115851 0.05768231 0.1323717 -0.08127335 0.2031301 -0.08364543 -0.1089269 -0.06906019 -0.0494488 -0.002219784 -0.08187367 0.03864326 0.07290253 -0.05571033 0.05725563 0.02364086 -0.02792296 -0.005100812 -0.0227825 -0.08990975 0.06417862 0.08307308 0.0567282 0.04659915 0.0191335 0.02171279 -0.07023634 0.1774821 0.1576449 -0.02532094 0.009850017 0.1224065 0.08254576 0.1064513 0.05409138 -0.08021027 0.02264068 -0.1479567 -0.01243931 0.00245145 -0.03485249 -0.07852054 -0.1585085 -0.1046214 0.05462849 -0.08775771 0.08836186 0.113886 -0.04725926 -0.01131366 0.09430389 -0.1098347 -0.07721405 -0.008726967 -0.1739045 0.1013115 0.01357957 0.0874346 -0.02676407 0.02687968 -0.04415813 0.008997804 0.1706374 0.01417089 0.05918086 0.03682751 0.01832192 -0.08585048 0.1225004 0.004679195 -0.07044955 -0.095463 0.05357436 0.02919213 0.08325956 0.06905055 0.1377631 -0.07955897 -0.2278128 -0.07739201 -0.07807831 -0.05987382 0.03617237 0.06150254 -0.01880077 -0.1664356 0.01631418 -0.2386707 -0.117832 -0.1006611 0.06521726 0.02101124 0.2062894 0.08025148 -0.07207483 0.0675213 0.01506579 -0.02663736 -0.002001725 0.1409312 -0.1747175 0.03174568 -0.1668922 -0.06508259 -0.04146523 0.04908576 0.1520075 -0.06846508 0.04525743 -0.09222236 0.1213171 0.03710814 -0.04652749 -0.02350597 -0.1027416 -0.09326694 -0.1917268 -0.04031229 -0.2651991 0.0407485 -0.06434798 0.1955768 -0.07210565 -0.1607013 0.01433108 -0.0411681 -0.06451406 -0.002123365 -0.07355896 0.07871902 -0.2195727 0.04265663 -0.1250867 0.04529767 0.0314466 0.09124759 -0.08161175 -0.01387394 -0.0118303 -0.01107836 -0.1037333 0.0197126 -0.0107985 0.1775991 -0.2204841 0.161707 0.08130463 -0.09117171 0.01051764 -0.07370602 0.02841072 -0.01698674 -0.06343906 -0.3654824 0.01635152 -0.06879308 -0.0961179 -0.05933635 -0.117159 -0.09233438 -0.1299863 -0.02956953 0.04973606 0.05345094 -0.004845541 -0.1370665 0.1397198 -0.02455718 -0.04393002 0.100421 0.2067743 -0.1456221 0.08912545 0.1236121 0.01351138 -0.03465755 0.09316617 0.1124667 -0.04293453 -0.0604069 -0.0276876 0.001907281 0.1091954 -0.06622932 0.06678971 -0.1630455 0.04320437 -0.01183678 0.03662533 -0.08501913 0.006860595 -0.1349273 0.03022898 -0.1983941 0.03037334 0.011769 -0.09366871 -0.0123811 0.03580303 0.02012287 0.3181373 0.0805769 -0.06036004 -0.1057463 0.03113452 -0.01799797 0.01843263 -0.1777761 -0.1215474 0.1263763 
  -0.06895397 -0.1249226 0.1489545 0.05079579 -0.1101975 -0.06336234 -0.04334014 -0.08081935 -0.1578978 -0.1713958 -0.1144882 -0.1603187 -0.05268469 0.1595116 0.08130704 0.1001975 0.1834475 0.139167 -0.1113778 0.0411182 -0.03461104 -0.02416645 -0.1860478 0.1396382 -0.05346995 -0.1186995 0.09247333 -0.0105588 0.005253724 -0.08405847 -0.1559855 0.02008393 -0.0001695253 -0.008680122 -0.1021608 0.05903042 0.06298523 0.1104583 -0.02524119 -0.1793346 -0.1445207 -0.1684946 0.0404653 -0.04797768 -0.2156484 -0.196392 -0.2160264 -0.08884288 0.01024099 -0.08957285 -0.03560183 -0.08169328 0.02857349 0.02418775 0.004081649 0.06845624 -0.1085892 -0.1491267 -0.08176111 0.05110188 -0.2406882 -0.1302923 -0.2215803 0.1495521 -0.1227319 0.09841795 -0.04699266 0.03919072 -0.1363074 -0.08777651 -0.1791036 0.03877879 -0.1207067 0.1391212 -0.08165801 -0.001112638 0.0109983 0.1197698 0.08453602 0.04094341 -0.1326272 0.04354513 0.1248891 0.1804692 0.06499982 -0.09476805 0.04672567 -0.02988491 -0.04211403 -0.03152062 -0.1022465 -0.1493005 0.0312527 -0.06486104 -0.05102269 0.0580173 0.1998944 -0.2054488 -0.1118538 0.02285031 -0.1089358 0.03439349 0.03525972 0.04062446 -0.07339757 -0.1279972 -0.04171777 -0.1546508 -0.03814211 0.1910097 -0.04596512 -0.1927361 0.01658042 0.008450823 -0.01908896 -0.06043086 0.08971988 0.07897217 -0.1334996 0.05548847 0.01580694 0.1221704 0.1161113 0.1214062 -0.08800472 0.3643258 0.2827838 0.1307075 -0.05238153 0.2115608 0.03220992 0.1662925 0.1979302 0.1612076 0.1621898 -0.2008969 -0.02588958 0.04752739 0.05965918 -0.01248469 0.08824722 0.1502856 0.05665154 0.01698219 0.172557 0.1069856 0.1062795 0.202543 -0.02945513 -0.06630455 0.1569567 0.01924264 -0.03512381 -0.050155 -0.05283109 0.1214093 0.03517601 0.04678641 -0.07577582 0.01935252 0.0500983 0.1000625 0.1545585 0.02506928 0.1007522 0.05485605 0.177845 -0.06487579 0.2050788 0.09723984 -0.007297039 0.1390374 -0.04635583 0.0825882 0.05373445 0.005909568 -0.1298184 0.01433441 -0.004000616 -0.000296532 -0.128652 0.1660655 0.08913627 -0.001382152 -0.006671246 0.1736791 0.05461543 0.2307332 0.1686878 0.04018502 0.02189785 -0.00771978 0.02717726 0.2109873 -0.1893735 0.08843973 0.01650096 -0.04527147 -0.04426102 -0.03869724 0.02997158 -0.08116052 0.001191046 0.06815083 0.02493333 0.1558613 0.1668755 0.1649432 0.08132028 0.1091145 0.1378576 0.1044362 0.2536571 0.2226949 0.1720385 0.1029169 0.1127117 0.1016569 0.1163314 0.1253176 -0.0586558 0.04255924 0.1598795 0.05879017 0.09210668 -0.04045977 0.01677467 0.1609322 -0.08375081 0.01683733 -0.03465858 0.03733525 0.1381889 -0.0726291 0.2928109 0.004314647 -0.01051383 -0.05482047 0.1674724 0.07055202 -0.1985154 0.2040547 -0.1592187 -0.03227005 -0.003346653 -0.1793337 -0.09941754 -0.1248307 0.1829746 0.02570776 -0.01427323 0.09163441 -0.03150212 -0.08286171 0.1018795 -0.0733345 -0.04817117 -0.02597797 -0.05026627 -0.04137113 -0.03901179 0.1184434 -0.1916763 -0.08196938 -0.0799254 0.0007214961 -0.1088323 -0.06194875 -0.03888169 -0.09800099 0.1733836 -0.1507955 0.1124425 0.1750675 -0.01556237 0.06227862 0.1380806 -0.1526562 0.01312456 0.02612663 -0.092786 0.05673611 -0.04661419 0.08816358 0.124491 -0.09056276 -0.01839818 0.02822018 0.1047715 0.05175475 0.06433564 0.06234846 -0.1036903 -0.1366092 -0.1320483 -0.01709768 0.1807083 0.06636234 -0.01407971 -0.2173003 -0.08533717 -0.1074627 -0.04594776 0.03719541 -0.0449987 -0.1461783 0.009110742 -0.1537007 0.05265311 -0.05927354 0.003719224 0.01515976 0.04521425 -0.01305841 0.07336206 -0.1176213 0.05043621 0.01527647 0.02472485 -0.08609682 -0.001852837 -0.02927112 -0.1333176 -0.04446513 -0.007438996 0.04045155 -0.1468009 -0.02699531 0.03676892 0.2336382 -0.04384093 -0.0948998 -0.1238842 -0.08431671 -0.02705258 0.1864572 0.1993483 0.1862749 0.009728346 0.09483799 0.05488449 -0.003868436 -0.07061297 0.02310989 -0.1315136 -0.04638093 -0.07168125 -0.04027792 -0.03183357 -0.06434526 0.1560698 -0.1066778 -0.03654731 -0.1621285 -0.06873813 -0.1443174 0.1136484 -0.04983999 0.02917027 -0.007593021 0.002302904 0.02987198 -0.188824 -0.150876 -0.07229062 -0.03526299 0.06789312 -0.003948323 0.1847188 0.03499848 0.1493818 -0.05960921 -0.250999 0.06885964 0.07239322 -0.1355796 -0.07229736 -0.003143128 0.01169202 -0.1700587 0.04500489 0.2155585 0.1833892 -0.04243659 0.05070984 -0.01058467 0.1455393 -0.1030105 -0.1509129 -0.03926293 -0.1144344 -0.04787621 0.1771534 -0.06226767 0.0335829 0.04522054 -0.009422812 -0.316454 -0.0582704 -0.04332221 0.0490252 0.08596046 -0.07557213 -0.1579538 0.02801703 0.2623383 0.01554629 0.3117081 0.195102 0.0774927 0.1425186 -0.08054347 -0.1818539 -0.2180571 -0.2442546 0.003230673 0.006419322 -0.07267153 0.1116221 0.04303236 0.1579661 -0.08766379 0.04553504 0.2447319 0.007421494 0.137777 0.02190753 0.0004647248 -0.001913365 0.06107029 0.005523742 0.04816606 -0.09678578 -0.1746332 -0.152764 0.02173761 -0.07129925 -0.08955579 -0.001449131 -0.0112707 
  -0.1280451 0.006826048 -0.3035236 -0.2802946 -0.2508507 -0.1624446 -0.02401072 -0.1003474 0.1494163 -0.2579606 -0.1379124 -0.162627 -0.1076518 -0.1297246 0.03258032 -0.04459478 0.09125549 -0.1630588 -0.07911853 -0.2091485 -0.1363648 -0.2029595 -0.08814593 -0.1481228 0.08371751 0.1931183 0.1561031 0.06391326 0.2312168 0.2220846 0.200885 0.3275943 0.1567842 0.09208567 -0.05140288 -0.01067929 0.08377147 -0.09899589 -0.1037347 -0.1089162 -0.1394383 0.1404617 -0.07314194 -0.2296633 -0.001513536 -0.02224015 0.04307994 0.1871637 -0.1323336 0.004375251 -0.1086901 -0.1864959 -0.1146984 -0.02460716 -0.1960512 0.1129996 -0.2207559 -0.01089306 0.02413929 -0.1421238 -0.02171217 -0.09263832 0.07909571 -0.08352453 0.03272497 0.1217974 0.2518344 -0.07123814 0.06530906 0.188071 -0.01754426 -0.00442579 -0.0508852 -0.01760088 -0.1701493 -0.07572799 0.01971132 -0.1068321 -0.138181 -0.01604217 0.1499913 0.1799813 0.19892 0.07239897 0.05806845 0.04831821 0.04172058 0.1553035 0.1576428 0.1575976 -0.08564606 0.008394209 -0.04206645 -0.09063131 -0.2059547 0.01382194 0.07392142 0.03699919 0.08226005 0.03186775 -0.02148772 0.03841912 -0.1142351 -0.01130389 0.1743638 0.1722325 -0.03541112 0.3144234 -0.1247069 0.08007628 0.06012248 -0.1401559 -0.0617973 -0.1837751 0.02174423 0.1019462 0.06274486 -0.03316173 0.04058017 0.03953477 -0.04778827 0.03144823 0.1212775 0.09306365 0.1760809 0.1303441 -0.065041 0.02098452 0.2780637 0.03610291 0.0454418 0.01748886 0.03681234 -0.1281673 -0.04117043 0.02660989 0.07506438 0.06617579 -0.09202882 0.02052425 0.01247974 0.1496678 0.09100825 0.1315073 -0.06147317 0.07320141 0.07375273 -0.2328233 -0.03737698 0.202622 -0.1346971 -0.09804704 0.1256579 0.009302098 -0.00270435 -0.150983 -0.1261533 -0.08984623 0.01120294 0.06278778 0.1594642 -0.04102522 0.1014622 0.06242919 0.1230965 0.008414156 -0.07169672 0.08145752 -0.03056839 0.08225948 0.07843258 -0.04743131 -0.05645391 -0.1672089 0.09660334 -0.09960216 0.246456 0.03915053 0.034002 -0.01985203 0.07742683 0.02615585 0.0320758 0.1205214 -0.1052797 -0.07169587 -0.1473518 0.01847032 0.1068879 0.01812917 0.002909401 0.04982386 0.02546084 0.06386115 -0.08391984 0.04766483 0.09756032 0.1875559 -0.0269609 -0.01339527 0.1008761 -0.009105134 0.03562163 0.09375002 -0.07454408 -0.04867622 -0.06767619 -0.1229513 0.1726406 -0.0503515 -0.04479406 -0.1339944 -0.2369184 0.009783575 0.1046581 0.03271517 0.1811708 0.1704794 0.09704243 0.004586895 0.1494087 -0.08669832 -0.06539039 0.01487292 -0.1297008 -0.02245365 -0.05064428 -0.1845599 -0.1197162 0.0498238 -0.05367038 0.04486788 -0.1360558 -0.05144083 -0.01863843 -0.1507852 -0.06093994 0.1609235 -0.0094514 0.02776393 0.07148577 0.04035273 0.05155531 -0.01704209 0.1544842 0.1027629 -0.2090798 0.01117852 0.08115552 0.08287792 0.02820379 -0.07730228 0.01664401 0.0008741966 -0.01932247 0.2674271 0.01540197 -0.1728013 0.0911639 -0.07190298 0.02919334 0.1531783 0.097191 -0.09570808 -0.02086058 -0.05471846 -0.2215069 -0.1254154 0.02708895 0.02413203 0.02821247 -0.09668982 0.1413312 -0.2315131 0.1770656 -0.008801755 0.1268216 0.03070966 -0.1349758 0.09328078 0.09850783 0.02760082 0.1445018 -0.03442326 -0.1173492 0.08713789 0.02069375 0.05697642 -0.03150827 0.04694142 -0.004919731 -0.2670228 0.02384672 -0.0666333 0.04587225 0.1783519 -0.03256511 -0.09110635 -0.1684619 -0.07420334 -0.008071564 0.03842037 0.0414996 0.008373905 -0.08917951 -0.04388871 -0.06201795 0.06705713 0.03732846 -0.07325391 0.1314384 0.08966618 -0.06158724 0.1495277 0.07089075 0.02747473 -0.0925772 0.002642921 -0.06347992 0.001566443 0.01438102 -0.08650919 0.01785137 0.0535221 0.1064732 -0.1380192 0.01174484 -0.02745033 0.1650493 0.1712934 0.04834943 -0.07287871 -0.1319522 0.228708 0.1633017 0.04130966 0.05665051 0.01805765 -0.2243858 -0.07333704 -0.1589317 -0.1021859 0.0700974 0.05729873 0.05487833 -0.2930223 -0.01159355 -0.00700467 0.09012225 0.01094978 0.1411132 0.2210049 0.03387294 -0.01390392 -0.002529898 -0.03978836 0.1054044 0.1118596 -0.02954776 -0.1149276 0.05537383 -0.08166498 0.04273729 -0.05008319 0.01954625 0.008998837 0.2135172 0.1665386 0.1976615 0.1542341 -0.02969155 -0.0703541 0.09460336 0.2138609 0.02476516 -0.09961078 -0.1126592 -0.1825681 -0.2486122 0.08271197 -0.0644205 0.185264 -0.02066537 -0.07792629 -0.05381306 -0.1173933 -0.003239812 0.08866598 0.1266274 0.04895173 -0.03445807 0.08918703 0.007377476 0.08234877 -0.00560167 -0.02994568 -0.08932192 0.0417549 -0.01986055 -0.1043945 0.07630317 0.03255055 -0.01770074 -0.03815476 -0.0808754 0.1203383 0.1223185 0.09210246 -0.05539576 -0.06532358 -0.04327857 0.2423529 0.1141301 -0.02455775 0.07457819 -0.0576907 -0.4096524 -0.2615731 -0.2029081 -0.09526072 -0.05182065 0.08190571 -0.1228327 -0.08697204 -0.02926467 -0.145809 0.06591712 -0.01558842 0.170664 0.04422726 0.04236635 0.04430386 0.05253085 -0.002241277 -0.1391522 0.1699512 -0.07375107 -0.2779774 -0.02931064 0.08867785 
  0.08487447 -0.02749996 0.09359492 0.0358003 0.03449538 0.0877099 0.08730191 -0.1235099 0.2265273 -0.09352143 -0.02888932 -0.02425038 -0.1025357 -0.02988108 0.09541749 0.03286187 -0.1299583 0.08735452 0.008528655 0.04474476 -0.04414255 0.1752984 -0.04039346 -0.06371135 0.03972979 -0.007769553 -0.02279658 -0.02121318 -0.001980229 -0.02330551 -0.04565528 -0.08986442 0.2011902 -0.0007133926 0.08918945 -0.07467061 -0.1797894 0.09520303 -0.08057788 -0.1047105 -0.0537889 0.04171831 0.3154476 0.1215241 0.1069009 -0.1199721 0.02972527 -0.01200742 -0.05086245 -0.09724358 -0.2114979 -0.107555 -0.02116851 0.01507988 0.01069094 -0.2246203 -0.1128435 -0.06167338 -0.1451791 -0.03309107 0.02759895 -0.09925164 -0.03976665 -0.08391023 -0.0970877 -0.01615705 -0.06640603 0.02060444 0.1701483 0.003873479 -0.04560944 0.1184178 -0.1566734 0.04319078 -0.01928381 -0.112096 0.1646972 -0.0428354 0.05488269 0.02641596 -0.1228871 0.03709613 -0.01226795 0.03472312 -0.1326535 -0.02015883 0.03905727 -0.136977 0.02821355 -0.1882597 0.05489803 -0.03687204 -0.02778683 -0.1135216 -0.08438228 0.01366937 -0.05404796 0.1237361 0.06307874 -0.2048306 0.04892008 0.1351574 -0.112649 0.08978864 0.0211439 0.07185147 -0.1986528 -0.02520693 -0.1283616 0.001157753 -0.03116067 -0.1625544 -0.03212996 -0.1262119 -0.1462727 0.1022005 -0.0957412 -0.03893529 -0.07679602 -0.07373544 -0.05284692 -0.04819874 0.06325618 0.03024854 -0.006725617 0.02318479 0.03176573 0.09432549 -0.07050772 -0.1141178 0.1107628 0.04779859 0.04800849 0.129795 -0.1382437 -0.04798815 -0.06698754 -0.1684302 0.09848699 -0.07265819 -0.02613651 -0.07315759 0.06588263 -0.1434458 0.05882666 -0.141713 0.02302975 0.1339147 0.1124406 -0.01748439 0.1465423 0.1257559 -0.0860449 0.0696464 0.04289835 -0.1067917 0.03806018 -0.007272604 0.04330214 0.1145597 -0.06199571 0.08017366 0.06876914 -0.1599076 -0.1609604 -0.1229698 -0.03311015 0.01127257 -0.1624542 -0.02535422 -0.04574309 0.1879524 0.2647476 0.1045196 0.1623499 -0.01051568 -0.03073952 -0.1141086 -0.03088699 0.1483437 -0.02080386 -0.005837707 -0.115411 -0.1239234 -0.02232873 -0.1460649 -0.04688693 -0.06731193 -0.08143646 -0.03365582 0.00121469 0.0670104 -0.105393 0.0618988 0.0385018 0.07370852 -0.004936787 0.2091447 0.03800381 0.04480895 0.08702417 -0.04074769 -0.05752006 -0.2387393 -0.2493597 0.0196759 -0.02388894 0.3031027 -0.003430256 -0.1259829 0.03333527 -0.122636 0.01509834 0.2042481 0.1230713 0.04447417 0.07956589 0.04138606 -0.1205798 -0.0638672 0.1307965 0.1262081 0.1132015 -0.1256184 -0.03170207 -0.05694233 -0.04970493 -0.1047972 -0.09573293 -0.05198664 0.05767217 0.2335441 -0.04921417 0.1807194 0.02320999 -0.1027101 -0.08360355 0.03725502 -0.06187942 -0.03531234 -0.04332594 -0.09575437 -0.2167767 0.009199032 0.09112719 0.1468492 0.01648026 -0.01087045 0.06727493 0.06588149 -0.01945689 -0.1308067 0.1080493 0.1828367 -0.0218219 0.07021306 0.01728904 -0.1145685 -0.05029716 0.1358628 -0.04752155 0.009010811 -0.1032115 -0.09787711 0.03416571 -0.03679202 -0.0793732 0.01779461 -0.02776784 0.1332432 0.1297771 0.06881183 -0.1609063 0.1313064 -0.07122524 0.002732944 -0.1038819 0.3119073 -0.1804141 -0.006511444 -0.003200398 0.005581028 -0.1405376 0.1168381 -0.09350077 0.2050357 0.1106359 0.0407455 0.06809707 0.05751936 -0.2599918 -0.0662689 0.0617138 -0.03000939 0.1537075 0.0939713 0.02861434 -0.02758823 -0.05485804 0.1235641 -0.04875734 -0.05644719 -0.1135061 0.1265861 0.07152381 -0.2283821 0.07092702 -0.2333191 -0.03231267 0.009043627 0.07917909 0.01975785 0.1106114 0.1918954 -0.07500301 0.01381267 0.04022364 0.09549735 -0.05305268 0.05336183 -0.02566791 0.1363952 -0.09109466 0.06432712 -0.1589288 0.05031599 0.03416555 0.1017735 0.008825193 0.03877602 -0.02111925 -0.02270511 -0.1066824 0.1083408 0.1088135 0.06426459 0.1728299 0.0186223 -0.08470629 -0.1972434 0.006616352 -0.06075189 0.04044848 -0.05373786 -0.07876964 -0.05318476 -0.1675348 0.1192773 0.2072546 0.004769643 0.1363112 0.1002181 0.134098 -0.2947043 0.1378084 0.02879732 -0.03443843 0.0316074 -0.1642406 0.06168871 -0.03517915 -0.04304081 -0.04612245 0.1862897 0.07965238 -0.1010927 -0.1408408 0.07018101 -0.1719984 -0.09508915 -0.1168791 0.02207405 -0.07872231 0.07583781 0.04547402 0.2583298 0.03912277 0.2126225 0.01152745 -0.1860776 -0.05187336 -0.1725405 -0.05400358 -0.02734819 0.1429494 -0.08818064 -0.06801046 -0.044832 -0.1639481 0.1769327 -0.09920071 0.04074187 0.1800814 0.1023555 -0.046429 -0.02064312 0.0008659278 0.02511623 -0.02956939 -0.03540023 0.02808516 -0.20914 -0.07473733 0.08181409 0.2611602 0.01528635 -0.1221769 -0.09342364 0.001068057 0.05606775 0.1839744 0.00908101 0.05017764 0.03462972 0.1230384 0.03027664 0.1039991 0.04596398 0.04135497 0.1316382 0.001212565 -0.1579101 -0.02864229 -0.09032989 -0.04866674 -0.05879541 -0.05329594 -0.1078288 0.1120388 0.1000473 0.04605324 0.151905 -0.04076844 -0.04034293 0.1671659 0.07702517 0.008120111 -0.02651311 -0.0628058 0.08773895 
  0.07087184 -0.07925184 -0.1901145 0.2102198 -0.007007724 -0.3361136 -0.1472835 0.2428664 0.1228304 -0.04020402 -0.1559142 0.1706931 0.106833 -0.1462625 0.01977818 0.1834806 0.05079894 0.1284344 0.04290853 -0.07254688 -0.1471228 -0.04684388 -0.04113806 -0.02920504 0.01938822 0.05350188 0.08242181 0.157555 -0.1632669 0.0326938 -0.03643489 0.0098161 0.2131165 0.05762462 -0.007563038 -0.02677342 -0.2341743 0.004330128 -0.01564434 -0.154079 0.03114448 -0.1094724 -0.01046128 0.2663733 -0.0150772 -0.2063852 -0.1892993 0.1344643 0.15474 -0.1030355 -0.07846245 0.06152881 -0.1665304 0.04508903 -0.02830734 -0.06800284 0.01252581 0.04035434 0.04544623 0.08723018 0.03471698 -0.04320318 0.07825877 0.1454826 0.06400034 0.02816157 -0.03060264 0.02940695 -0.2023498 -0.07025646 0.03828925 -0.1707588 0.1197099 0.09862157 0.06985283 -0.02390992 0.04260817 0.005686114 0.2104961 0.006626688 0.128383 -0.2120196 0.04910387 0.1512227 0.1806288 -0.2947731 -0.1465891 0.2914956 0.2195996 -0.006494439 -0.04082385 0.06127336 -0.1766628 0.1831131 -0.1258099 0.001973051 0.1950195 -0.05552499 -0.2368623 0.003739039 -0.112217 -0.1111282 -0.1418663 -0.1093494 -0.005838671 0.01333882 0.0800767 0.05155287 0.112834 -0.02271979 0.06337433 0.002052747 -0.06317053 0.03595592 0.02315327 -0.01627516 0.002022702 -0.1024826 0.04783949 0.1376183 0.1126054 -0.2299366 -0.05915505 0.1265901 0.233667 -0.1921408 0.01965753 0.08316506 0.1181347 -0.01319931 -0.09100418 0.1269642 -0.03292462 -0.1126535 -0.0111687 -0.07633606 0.02486899 -0.1257779 0.1951637 -0.01179038 0.07960623 -0.07970596 0.0008661194 -0.003060515 -0.06114673 0.1112802 -0.1699895 0.07508721 0.06621888 -0.02421758 0.001743022 -0.06855459 -0.04642975 0.04723348 0.00266884 -0.07023188 -0.02273447 -0.02305881 0.06882767 0.001823396 0.1134037 -0.1620848 -0.1377098 0.1989875 0.05116931 -0.2000356 -0.157314 0.1589373 0.05312949 0.01322807 0.08506417 0.1479637 -0.1092298 0.003388895 0.02968555 0.02109212 -0.06528482 0.02008094 -0.03835434 0.01548763 0.1627856 0.03911952 0.06107007 -0.03079495 -0.04341751 -0.0931669 0.08335751 0.01144541 0.03756493 -0.01307676 -0.07885928 -0.1158153 0.1398209 0.2042095 0.09351584 -0.09029534 0.07876388 -0.03143849 0.01252205 -0.02902779 -0.04064547 -0.06393589 -0.09924637 0.3547889 -0.0226002 -0.2051411 -0.1906517 0.08517945 0.03341741 0.1279078 -0.05746206 0.01023865 0.06713884 -0.05908968 -0.08787107 -0.02104967 0.08284275 -0.01898907 -0.1333949 0.05908529 -0.1797969 -0.07518909 -0.03276645 -0.05104082 0.06605907 -0.07562134 0.07011048 0.02168745 0.01610829 0.03182801 0.02190285 -0.0641306 0.04534744 0.005352688 -0.07385052 0.04725855 -0.1500711 0.07461719 -0.017843 0.002789226 0.06277394 -0.225503 0.09998806 0.1546901 -0.02615045 -0.2496626 -0.1240377 0.1942398 0.0377702 -0.08551124 -0.08981456 0.0894239 -0.04307595 0.1108315 -0.009313731 0.03497204 0.1089144 -0.06665617 0.07208733 -0.05141314 0.0306042 0.06951337 -0.0196971 -0.04563763 0.01790266 0.09197248 0.02652523 -0.09375504 0.04088306 0.006571947 0.08941054 0.05789787 -0.02794957 0.08957228 0.05246707 -0.07539173 0.02458944 -0.07256919 0.03413553 -0.006385372 -0.007529963 -0.04953405 0.1415815 -0.03340845 -0.05584336 -0.2448868 0.02890013 0.1135703 0.1275789 -0.006820107 0.09803651 0.03990157 -0.1485488 -0.0435608 0.0904756 -0.1324247 -0.01084263 0.1028524 -0.05606697 0.07244787 -0.04278088 -0.06385731 0.01070288 -0.009059252 -0.04580636 0.1388295 0.01378731 0.04430475 -0.07348692 -0.1816349 0.0815743 0.07974308 -0.08128702 0.005182373 -0.08596125 -0.0385118 -0.0251559 -0.007035216 0.04820095 0.1049795 -0.07158922 -0.02189733 0.1620394 0.08277209 -0.01288498 -0.103827 -0.06609525 0.2355077 0.03708947 0.09853143 -0.06770867 0.06121857 -0.01334944 0.1103282 -0.01323022 0.007452065 0.06906817 -0.1144742 0.01071499 0.1028893 -0.1598526 -0.069435 -0.031532 -0.1468791 -0.06075066 0.003273605 -0.02929803 0.06741487 -0.007948048 0.1905222 0.09037199 0.03662543 -0.2498823 0.01250567 -0.0192579 0.135274 0.08130834 -0.1116631 -0.008110214 -0.1026948 0.003515581 -0.1706991 0.3082859 0.07565224 -0.3130832 -0.2799277 0.1855185 0.02617351 0.05240712 0.01488777 0.07369588 0.1888153 -0.1242895 0.03148365 0.03135511 -0.06858634 0.04500972 0.0002619766 0.03206681 0.03770537 0.09708015 0.04059932 -0.1904736 0.05773791 -0.02068887 -0.09223766 -0.04744919 -0.02855302 0.2297737 -0.01345774 -0.1671933 0.1014542 0.03761704 0.04290706 0.06762867 -0.1579046 -0.01319167 0.01260749 0.08314323 0.009578924 -0.1475025 0.02815388 0.3319719 -0.00137354 -0.238073 -0.2037182 0.1274999 0.1262667 -0.09313284 0.1028754 0.1211601 0.05543679 0.05998651 -0.0898657 0.08360454 -0.01566835 -0.1952261 -0.08731899 -0.08364003 0.0301634 -0.1564797 -0.003151846 -0.1022995 -0.06014625 -0.06125006 0.04748506 0.05166711 0.09988165 0.1123874 -0.008038881 -0.1016002 -0.123165 -0.03822054 -0.08879727 -0.001334918 0.07179486 0.009406753 -0.2359649 0.03336784 0.03957489 
